digraph Tree {
node [shape=box, style="filled, rounded", color="black", fontname=helvetica] ;
edge [fontname=helvetica] ;
0 [label="Germany <= 0.5\ngini = 0.32\nsamples = 100.0%\nvalue = [0.8, 0.2]\nclass = E", fillcolor="#eba06a"] ;
1 [label="Age <= 41.5\ngini = 0.26\nsamples = 75.7%\nvalue = [0.84, 0.16]\nclass = E", fillcolor="#ea985d"] ;
0 -> 1 [labeldistance=2.5, labelangle=45, headlabel="True"] ;
2 [label="Age <= 35.5\ngini = 0.15\nsamples = 52.4%\nvalue = [0.92, 0.08]\nclass = E", fillcolor="#e78c4a"] ;
1 -> 2 ;
3 [label="CreditScore <= 521.5\ngini = 0.12\nsamples = 32.9%\nvalue = [0.94, 0.06]\nclass = E", fillcolor="#e78946"] ;
2 -> 3 ;
4 [label="CreditScore <= 493.5\ngini = 0.03\nsamples = 3.2%\nvalue = [0.99, 0.01]\nclass = E", fillcolor="#e5833c"] ;
3 -> 4 ;
5 [label="EstimatedSalary <= 160931.52\ngini = 0.05\nsamples = 1.8%\nvalue = [0.98, 0.02]\nclass = E", fillcolor="#e6843e"] ;
4 -> 5 ;
6 [label="gini = 0.0\nsamples = 1.4%\nvalue = [1.0, 0.0]\nclass = E", fillcolor="#e58139"] ;
5 -> 6 ;
7 [label="EstimatedSalary <= 163677.29\ngini = 0.17\nsamples = 0.4%\nvalue = [0.9, 0.1]\nclass = E", fillcolor="#e88e4e"] ;
5 -> 7 ;
8 [label="gini = 0.0\nsamples = 0.0%\nvalue = [0.0, 1.0]\nclass = x", fillcolor="#399de5"] ;
7 -> 8 ;
9 [label="Tenure <= 4.0\ngini = 0.07\nsamples = 0.4%\nvalue = [0.97, 0.03]\nclass = E", fillcolor="#e68640"] ;
7 -> 9 ;
10 [label="Tenure <= 2.5\ngini = 0.17\nsamples = 0.2%\nvalue = [0.91, 0.09]\nclass = E", fillcolor="#e88e4d"] ;
9 -> 10 ;
11 [label="gini = 0.0\nsamples = 0.1%\nvalue = [1.0, 0.0]\nclass = E", fillcolor="#e58139"] ;
10 -> 11 ;
12 [label="Age <= 30.5\ngini = 0.44\nsamples = 0.1%\nvalue = [0.67, 0.33]\nclass = E", fillcolor="#f2c09c"] ;
10 -> 12 ;
13 [label="gini = 0.0\nsamples = 0.0%\nvalue = [1.0, 0.0]\nclass = E", fillcolor="#e58139"] ;
12 -> 13 ;
14 [label="gini = 0.0\nsamples = 0.0%\nvalue = [0.0, 1.0]\nclass = x", fillcolor="#399de5"] ;
12 -> 14 ;
15 [label="gini = 0.0\nsamples = 0.2%\nvalue = [1.0, 0.0]\nclass = E", fillcolor="#e58139"] ;
9 -> 15 ;
16 [label="gini = 0.0\nsamples = 1.4%\nvalue = [1.0, 0.0]\nclass = E", fillcolor="#e58139"] ;
4 -> 16 ;
17 [label="NumOfProducts <= 2.5\ngini = 0.13\nsamples = 29.7%\nvalue = [0.93, 0.07]\nclass = E", fillcolor="#e78a47"] ;
3 -> 17 ;
18 [label="NumOfProducts <= 1.5\ngini = 0.11\nsamples = 29.2%\nvalue = [0.94, 0.06]\nclass = E", fillcolor="#e78945"] ;
17 -> 18 ;
19 [label="Male <= 0.5\ngini = 0.17\nsamples = 13.7%\nvalue = [0.91, 0.09]\nclass = E", fillcolor="#e88e4d"] ;
18 -> 19 ;
20 [label="Tenure <= 0.5\ngini = 0.22\nsamples = 5.5%\nvalue = [0.88, 0.12]\nclass = E", fillcolor="#e99355"] ;
19 -> 20 ;
21 [label="EstimatedSalary <= 88441.23\ngini = 0.42\nsamples = 0.3%\nvalue = [0.7, 0.3]\nclass = E", fillcolor="#f0b78e"] ;
20 -> 21 ;
22 [label="gini = 0.0\nsamples = 0.2%\nvalue = [1.0, 0.0]\nclass = E", fillcolor="#e58139"] ;
21 -> 22 ;
23 [label="Age <= 30.0\ngini = 0.5\nsamples = 0.2%\nvalue = [0.5, 0.5]\nclass = E", fillcolor="#ffffff"] ;
21 -> 23 ;
24 [label="gini = 0.0\nsamples = 0.0%\nvalue = [1.0, 0.0]\nclass = E", fillcolor="#e58139"] ;
23 -> 24 ;
25 [label="IsActiveMember <= 0.5\ngini = 0.48\nsamples = 0.1%\nvalue = [0.4, 0.6]\nclass = x", fillcolor="#bddef6"] ;
23 -> 25 ;
26 [label="Balance <= 119225.37\ngini = 0.5\nsamples = 0.1%\nvalue = [0.5, 0.5]\nclass = E", fillcolor="#ffffff"] ;
25 -> 26 ;
27 [label="CreditScore <= 604.5\ngini = 0.44\nsamples = 0.1%\nvalue = [0.67, 0.33]\nclass = E", fillcolor="#f2c09c"] ;
26 -> 27 ;
28 [label="gini = 0.0\nsamples = 0.0%\nvalue = [1.0, 0.0]\nclass = E", fillcolor="#e58139"] ;
27 -> 28 ;
29 [label="Spain <= 0.5\ngini = 0.5\nsamples = 0.1%\nvalue = [0.5, 0.5]\nclass = E", fillcolor="#ffffff"] ;
27 -> 29 ;
30 [label="gini = 0.0\nsamples = 0.0%\nvalue = [1.0, 0.0]\nclass = E", fillcolor="#e58139"] ;
29 -> 30 ;
31 [label="gini = 0.0\nsamples = 0.0%\nvalue = [0.0, 1.0]\nclass = x", fillcolor="#399de5"] ;
29 -> 31 ;
32 [label="gini = 0.0\nsamples = 0.0%\nvalue = [0.0, 1.0]\nclass = x", fillcolor="#399de5"] ;
26 -> 32 ;
33 [label="gini = 0.0\nsamples = 0.0%\nvalue = [0.0, 1.0]\nclass = x", fillcolor="#399de5"] ;
25 -> 33 ;
34 [label="Tenure <= 4.5\ngini = 0.2\nsamples = 5.2%\nvalue = [0.89, 0.11]\nclass = E", fillcolor="#e89153"] ;
20 -> 34 ;
35 [label="CreditScore <= 765.0\ngini = 0.16\nsamples = 2.4%\nvalue = [0.91, 0.09]\nclass = E", fillcolor="#e78d4b"] ;
34 -> 35 ;
36 [label="HasCrCard <= 0.5\ngini = 0.09\nsamples = 2.0%\nvalue = [0.95, 0.05]\nclass = E", fillcolor="#e68742"] ;
35 -> 36 ;
37 [label="Balance <= 91371.81\ngini = 0.17\nsamples = 0.5%\nvalue = [0.91, 0.09]\nclass = E", fillcolor="#e88e4d"] ;
36 -> 37 ;
38 [label="Age <= 28.0\ngini = 0.41\nsamples = 0.1%\nvalue = [0.71, 0.29]\nclass = E", fillcolor="#efb388"] ;
37 -> 38 ;
39 [label="gini = 0.0\nsamples = 0.1%\nvalue = [1.0, 0.0]\nclass = E", fillcolor="#e58139"] ;
38 -> 39 ;
40 [label="Balance <= 83102.89\ngini = 0.44\nsamples = 0.0%\nvalue = [0.33, 0.67]\nclass = x", fillcolor="#9ccef2"] ;
38 -> 40 ;
41 [label="gini = 0.0\nsamples = 0.0%\nvalue = [1.0, 0.0]\nclass = E", fillcolor="#e58139"] ;
40 -> 41 ;
42 [label="gini = 0.0\nsamples = 0.0%\nvalue = [0.0, 1.0]\nclass = x", fillcolor="#399de5"] ;
40 -> 42 ;
43 [label="EstimatedSalary <= 147470.24\ngini = 0.08\nsamples = 0.4%\nvalue = [0.96, 0.04]\nclass = E", fillcolor="#e68641"] ;
37 -> 43 ;
44 [label="gini = 0.0\nsamples = 0.3%\nvalue = [1.0, 0.0]\nclass = E", fillcolor="#e58139"] ;
43 -> 44 ;
45 [label="EstimatedSalary <= 149902.32\ngini = 0.24\nsamples = 0.1%\nvalue = [0.86, 0.14]\nclass = E", fillcolor="#e9965a"] ;
43 -> 45 ;
46 [label="gini = 0.0\nsamples = 0.0%\nvalue = [0.0, 1.0]\nclass = x", fillcolor="#399de5"] ;
45 -> 46 ;
47 [label="gini = 0.0\nsamples = 0.1%\nvalue = [1.0, 0.0]\nclass = E", fillcolor="#e58139"] ;
45 -> 47 ;
48 [label="EstimatedSalary <= 196569.98\ngini = 0.06\nsamples = 1.5%\nvalue = [0.97, 0.03]\nclass = E", fillcolor="#e6853f"] ;
36 -> 48 ;
49 [label="EstimatedSalary <= 180664.26\ngini = 0.04\nsamples = 1.4%\nvalue = [0.98, 0.02]\nclass = E", fillcolor="#e6843d"] ;
48 -> 49 ;
50 [label="Balance <= 179212.87\ngini = 0.02\nsamples = 1.3%\nvalue = [0.99, 0.01]\nclass = E", fillcolor="#e5823b"] ;
49 -> 50 ;
51 [label="gini = 0.0\nsamples = 1.3%\nvalue = [1.0, 0.0]\nclass = E", fillcolor="#e58139"] ;
50 -> 51 ;
52 [label="gini = 0.0\nsamples = 0.0%\nvalue = [0.0, 1.0]\nclass = x", fillcolor="#399de5"] ;
50 -> 52 ;
53 [label="CreditScore <= 649.0\ngini = 0.22\nsamples = 0.1%\nvalue = [0.88, 0.12]\nclass = E", fillcolor="#e99355"] ;
49 -> 53 ;
54 [label="gini = 0.0\nsamples = 0.1%\nvalue = [1.0, 0.0]\nclass = E", fillcolor="#e58139"] ;
53 -> 54 ;
55 [label="IsActiveMember <= 0.5\ngini = 0.44\nsamples = 0.1%\nvalue = [0.67, 0.33]\nclass = E", fillcolor="#f2c09c"] ;
53 -> 55 ;
56 [label="gini = 0.0\nsamples = 0.0%\nvalue = [1.0, 0.0]\nclass = E", fillcolor="#e58139"] ;
55 -> 56 ;
57 [label="gini = 0.0\nsamples = 0.0%\nvalue = [0.0, 1.0]\nclass = x", fillcolor="#399de5"] ;
55 -> 57 ;
58 [label="gini = 0.0\nsamples = 0.0%\nvalue = [0.0, 1.0]\nclass = x", fillcolor="#399de5"] ;
48 -> 58 ;
59 [label="CreditScore <= 778.5\ngini = 0.38\nsamples = 0.4%\nvalue = [0.74, 0.26]\nclass = E", fillcolor="#eead7e"] ;
35 -> 59 ;
60 [label="EstimatedSalary <= 65096.27\ngini = 0.44\nsamples = 0.1%\nvalue = [0.33, 0.67]\nclass = x", fillcolor="#9ccef2"] ;
59 -> 60 ;
61 [label="gini = 0.0\nsamples = 0.0%\nvalue = [0.0, 1.0]\nclass = x", fillcolor="#399de5"] ;
60 -> 61 ;
62 [label="Balance <= 67285.75\ngini = 0.44\nsamples = 0.1%\nvalue = [0.67, 0.33]\nclass = E", fillcolor="#f2c09c"] ;
60 -> 62 ;
63 [label="gini = 0.0\nsamples = 0.0%\nvalue = [0.0, 1.0]\nclass = x", fillcolor="#399de5"] ;
62 -> 63 ;
64 [label="gini = 0.0\nsamples = 0.0%\nvalue = [1.0, 0.0]\nclass = E", fillcolor="#e58139"] ;
62 -> 64 ;
65 [label="EstimatedSalary <= 180505.62\ngini = 0.27\nsamples = 0.3%\nvalue = [0.84, 0.16]\nclass = E", fillcolor="#ea995f"] ;
59 -> 65 ;
66 [label="Balance <= 31881.74\ngini = 0.16\nsamples = 0.3%\nvalue = [0.91, 0.09]\nclass = E", fillcolor="#e78d4c"] ;
65 -> 66 ;
67 [label="IsActiveMember <= 0.5\ngini = 0.48\nsamples = 0.1%\nvalue = [0.6, 0.4]\nclass = E", fillcolor="#f6d5bd"] ;
66 -> 67 ;
68 [label="gini = 0.0\nsamples = 0.0%\nvalue = [1.0, 0.0]\nclass = E", fillcolor="#e58139"] ;
67 -> 68 ;
69 [label="Age <= 34.0\ngini = 0.5\nsamples = 0.0%\nvalue = [0.5, 0.5]\nclass = E", fillcolor="#ffffff"] ;
67 -> 69 ;
70 [label="gini = 0.0\nsamples = 0.0%\nvalue = [0.0, 1.0]\nclass = x", fillcolor="#399de5"] ;
69 -> 70 ;
71 [label="gini = 0.0\nsamples = 0.0%\nvalue = [1.0, 0.0]\nclass = E", fillcolor="#e58139"] ;
69 -> 71 ;
72 [label="gini = 0.0\nsamples = 0.2%\nvalue = [1.0, 0.0]\nclass = E", fillcolor="#e58139"] ;
66 -> 72 ;
73 [label="gini = 0.0\nsamples = 0.0%\nvalue = [0.0, 1.0]\nclass = x", fillcolor="#399de5"] ;
65 -> 73 ;
74 [label="CreditScore <= 592.5\ngini = 0.24\nsamples = 2.8%\nvalue = [0.86, 0.14]\nclass = E", fillcolor="#e99558"] ;
34 -> 74 ;
75 [label="Balance <= 108176.86\ngini = 0.41\nsamples = 0.6%\nvalue = [0.71, 0.29]\nclass = E", fillcolor="#f0b58b"] ;
74 -> 75 ;
76 [label="CreditScore <= 580.0\ngini = 0.5\nsamples = 0.3%\nvalue = [0.55, 0.45]\nclass = E", fillcolor="#fbeade"] ;
75 -> 76 ;
77 [label="HasCrCard <= 0.5\ngini = 0.42\nsamples = 0.2%\nvalue = [0.71, 0.29]\nclass = E", fillcolor="#f0b58b"] ;
76 -> 77 ;
78 [label="Tenure <= 6.5\ngini = 0.18\nsamples = 0.2%\nvalue = [0.9, 0.1]\nclass = E", fillcolor="#e88f4f"] ;
77 -> 78 ;
79 [label="gini = 0.0\nsamples = 0.1%\nvalue = [1.0, 0.0]\nclass = E", fillcolor="#e58139"] ;
78 -> 79 ;
80 [label="EstimatedSalary <= 183204.9\ngini = 0.5\nsamples = 0.0%\nvalue = [0.5, 0.5]\nclass = E", fillcolor="#ffffff"] ;
78 -> 80 ;
81 [label="gini = 0.0\nsamples = 0.0%\nvalue = [0.0, 1.0]\nclass = x", fillcolor="#399de5"] ;
80 -> 81 ;
82 [label="gini = 0.0\nsamples = 0.0%\nvalue = [1.0, 0.0]\nclass = E", fillcolor="#e58139"] ;
80 -> 82 ;
83 [label="CreditScore <= 547.0\ngini = 0.49\nsamples = 0.1%\nvalue = [0.43, 0.57]\nclass = x", fillcolor="#cee6f8"] ;
77 -> 83 ;
84 [label="gini = 0.0\nsamples = 0.1%\nvalue = [0.0, 1.0]\nclass = x", fillcolor="#399de5"] ;
83 -> 84 ;
85 [label="gini = 0.0\nsamples = 0.0%\nvalue = [1.0, 0.0]\nclass = E", fillcolor="#e58139"] ;
83 -> 85 ;
86 [label="gini = 0.0\nsamples = 0.0%\nvalue = [0.0, 1.0]\nclass = x", fillcolor="#399de5"] ;
76 -> 86 ;
87 [label="CreditScore <= 579.5\ngini = 0.19\nsamples = 0.3%\nvalue = [0.89, 0.11]\nclass = E", fillcolor="#e89050"] ;
75 -> 87 ;
88 [label="gini = 0.0\nsamples = 0.2%\nvalue = [1.0, 0.0]\nclass = E", fillcolor="#e58139"] ;
87 -> 88 ;
89 [label="EstimatedSalary <= 125368.34\ngini = 0.5\nsamples = 0.0%\nvalue = [0.5, 0.5]\nclass = E", fillcolor="#ffffff"] ;
87 -> 89 ;
90 [label="gini = 0.0\nsamples = 0.0%\nvalue = [0.0, 1.0]\nclass = x", fillcolor="#399de5"] ;
89 -> 90 ;
91 [label="gini = 0.0\nsamples = 0.0%\nvalue = [1.0, 0.0]\nclass = E", fillcolor="#e58139"] ;
89 -> 91 ;
92 [label="Age <= 33.5\ngini = 0.18\nsamples = 2.3%\nvalue = [0.9, 0.1]\nclass = E", fillcolor="#e88f4f"] ;
74 -> 92 ;
93 [label="CreditScore <= 770.0\ngini = 0.11\nsamples = 1.9%\nvalue = [0.94, 0.06]\nclass = E", fillcolor="#e78946"] ;
92 -> 93 ;
94 [label="Tenure <= 5.5\ngini = 0.08\nsamples = 1.7%\nvalue = [0.96, 0.04]\nclass = E", fillcolor="#e68742"] ;
93 -> 94 ;
95 [label="Balance <= 178182.22\ngini = 0.3\nsamples = 0.3%\nvalue = [0.82, 0.18]\nclass = E", fillcolor="#eb9d65"] ;
94 -> 95 ;
96 [label="CreditScore <= 636.0\ngini = 0.18\nsamples = 0.2%\nvalue = [0.9, 0.1]\nclass = E", fillcolor="#e88f4f"] ;
95 -> 96 ;
97 [label="CreditScore <= 620.5\ngini = 0.44\nsamples = 0.0%\nvalue = [0.33, 0.67]\nclass = x", fillcolor="#9ccef2"] ;
96 -> 97 ;
98 [label="gini = 0.0\nsamples = 0.0%\nvalue = [1.0, 0.0]\nclass = E", fillcolor="#e58139"] ;
97 -> 98 ;
99 [label="gini = 0.0\nsamples = 0.0%\nvalue = [0.0, 1.0]\nclass = x", fillcolor="#399de5"] ;
97 -> 99 ;
100 [label="gini = 0.0\nsamples = 0.2%\nvalue = [1.0, 0.0]\nclass = E", fillcolor="#e58139"] ;
96 -> 100 ;
101 [label="gini = 0.0\nsamples = 0.0%\nvalue = [0.0, 1.0]\nclass = x", fillcolor="#399de5"] ;
95 -> 101 ;
102 [label="Tenure <= 6.5\ngini = 0.02\nsamples = 1.4%\nvalue = [0.99, 0.01]\nclass = E", fillcolor="#e5823b"] ;
94 -> 102 ;
103 [label="Balance <= 173884.71\ngini = 0.1\nsamples = 0.3%\nvalue = [0.94, 0.06]\nclass = E", fillcolor="#e78845"] ;
102 -> 103 ;
104 [label="gini = 0.0\nsamples = 0.3%\nvalue = [1.0, 0.0]\nclass = E", fillcolor="#e58139"] ;
103 -> 104 ;
105 [label="gini = 0.0\nsamples = 0.0%\nvalue = [0.0, 1.0]\nclass = x", fillcolor="#399de5"] ;
103 -> 105 ;
106 [label="gini = 0.0\nsamples = 1.1%\nvalue = [1.0, 0.0]\nclass = E", fillcolor="#e58139"] ;
102 -> 106 ;
107 [label="Spain <= 0.5\ngini = 0.3\nsamples = 0.2%\nvalue = [0.81, 0.19]\nclass = E", fillcolor="#eb9e67"] ;
93 -> 107 ;
108 [label="CreditScore <= 797.5\ngini = 0.4\nsamples = 0.1%\nvalue = [0.73, 0.27]\nclass = E", fillcolor="#efb083"] ;
107 -> 108 ;
109 [label="gini = 0.0\nsamples = 0.0%\nvalue = [0.0, 1.0]\nclass = x", fillcolor="#399de5"] ;
108 -> 109 ;
110 [label="gini = 0.0\nsamples = 0.1%\nvalue = [1.0, 0.0]\nclass = E", fillcolor="#e58139"] ;
108 -> 110 ;
111 [label="gini = 0.0\nsamples = 0.1%\nvalue = [1.0, 0.0]\nclass = E", fillcolor="#e58139"] ;
107 -> 111 ;
112 [label="IsActiveMember <= 0.5\ngini = 0.38\nsamples = 0.4%\nvalue = [0.74, 0.26]\nclass = E", fillcolor="#eead7e"] ;
92 -> 112 ;
113 [label="EstimatedSalary <= 11737.89\ngini = 0.5\nsamples = 0.2%\nvalue = [0.45, 0.55]\nclass = x", fillcolor="#deeffb"] ;
112 -> 113 ;
114 [label="gini = 0.0\nsamples = 0.0%\nvalue = [1.0, 0.0]\nclass = E", fillcolor="#e58139"] ;
113 -> 114 ;
115 [label="CreditScore <= 645.0\ngini = 0.44\nsamples = 0.1%\nvalue = [0.33, 0.67]\nclass = x", fillcolor="#9ccef2"] ;
113 -> 115 ;
116 [label="gini = 0.0\nsamples = 0.0%\nvalue = [1.0, 0.0]\nclass = E", fillcolor="#e58139"] ;
115 -> 116 ;
117 [label="EstimatedSalary <= 68118.66\ngini = 0.24\nsamples = 0.1%\nvalue = [0.14, 0.86]\nclass = x", fillcolor="#5aade9"] ;
115 -> 117 ;
118 [label="gini = 0.0\nsamples = 0.1%\nvalue = [0.0, 1.0]\nclass = x", fillcolor="#399de5"] ;
117 -> 118 ;
119 [label="Spain <= 0.5\ngini = 0.5\nsamples = 0.0%\nvalue = [0.5, 0.5]\nclass = E", fillcolor="#ffffff"] ;
117 -> 119 ;
120 [label="gini = 0.0\nsamples = 0.0%\nvalue = [1.0, 0.0]\nclass = E", fillcolor="#e58139"] ;
119 -> 120 ;
121 [label="gini = 0.0\nsamples = 0.0%\nvalue = [0.0, 1.0]\nclass = x", fillcolor="#399de5"] ;
119 -> 121 ;
122 [label="Balance <= 33908.36\ngini = 0.18\nsamples = 0.2%\nvalue = [0.9, 0.1]\nclass = E", fillcolor="#e88f4f"] ;
112 -> 122 ;
123 [label="EstimatedSalary <= 65050.51\ngini = 0.5\nsamples = 0.0%\nvalue = [0.5, 0.5]\nclass = E", fillcolor="#ffffff"] ;
122 -> 123 ;
124 [label="gini = 0.0\nsamples = 0.0%\nvalue = [0.0, 1.0]\nclass = x", fillcolor="#399de5"] ;
123 -> 124 ;
125 [label="gini = 0.0\nsamples = 0.0%\nvalue = [1.0, 0.0]\nclass = E", fillcolor="#e58139"] ;
123 -> 125 ;
126 [label="gini = 0.0\nsamples = 0.2%\nvalue = [1.0, 0.0]\nclass = E", fillcolor="#e58139"] ;
122 -> 126 ;
127 [label="Tenure <= 3.5\ngini = 0.13\nsamples = 8.2%\nvalue = [0.93, 0.07]\nclass = E", fillcolor="#e78a48"] ;
19 -> 127 ;
128 [label="Age <= 25.5\ngini = 0.2\nsamples = 2.8%\nvalue = [0.89, 0.11]\nclass = E", fillcolor="#e89152"] ;
127 -> 128 ;
129 [label="Tenure <= 2.5\ngini = 0.38\nsamples = 0.5%\nvalue = [0.74, 0.26]\nclass = E", fillcolor="#eead7e"] ;
128 -> 129 ;
130 [label="Age <= 24.5\ngini = 0.2\nsamples = 0.3%\nvalue = [0.89, 0.11]\nclass = E", fillcolor="#e89152"] ;
129 -> 130 ;
131 [label="gini = 0.0\nsamples = 0.2%\nvalue = [1.0, 0.0]\nclass = E", fillcolor="#e58139"] ;
130 -> 131 ;
132 [label="Tenure <= 0.5\ngini = 0.48\nsamples = 0.1%\nvalue = [0.6, 0.4]\nclass = E", fillcolor="#f6d5bd"] ;
130 -> 132 ;
133 [label="gini = 0.0\nsamples = 0.0%\nvalue = [1.0, 0.0]\nclass = E", fillcolor="#e58139"] ;
132 -> 133 ;
134 [label="gini = 0.0\nsamples = 0.0%\nvalue = [0.0, 1.0]\nclass = x", fillcolor="#399de5"] ;
132 -> 134 ;
135 [label="Age <= 21.0\ngini = 0.5\nsamples = 0.2%\nvalue = [0.54, 0.46]\nclass = E", fillcolor="#fbede3"] ;
129 -> 135 ;
136 [label="gini = 0.0\nsamples = 0.0%\nvalue = [1.0, 0.0]\nclass = E", fillcolor="#e58139"] ;
135 -> 136 ;
137 [label="Balance <= 114238.1\ngini = 0.48\nsamples = 0.1%\nvalue = [0.4, 0.6]\nclass = x", fillcolor="#bddef6"] ;
135 -> 137 ;
138 [label="Spain <= 0.5\ngini = 0.32\nsamples = 0.1%\nvalue = [0.8, 0.2]\nclass = E", fillcolor="#eca06a"] ;
137 -> 138 ;
139 [label="Age <= 23.0\ngini = 0.44\nsamples = 0.1%\nvalue = [0.67, 0.33]\nclass = E", fillcolor="#f2c09c"] ;
138 -> 139 ;
140 [label="gini = 0.0\nsamples = 0.0%\nvalue = [1.0, 0.0]\nclass = E", fillcolor="#e58139"] ;
139 -> 140 ;
141 [label="Age <= 24.5\ngini = 0.5\nsamples = 0.0%\nvalue = [0.5, 0.5]\nclass = E", fillcolor="#ffffff"] ;
139 -> 141 ;
142 [label="gini = 0.0\nsamples = 0.0%\nvalue = [0.0, 1.0]\nclass = x", fillcolor="#399de5"] ;
141 -> 142 ;
143 [label="gini = 0.0\nsamples = 0.0%\nvalue = [1.0, 0.0]\nclass = E", fillcolor="#e58139"] ;
141 -> 143 ;
144 [label="gini = 0.0\nsamples = 0.0%\nvalue = [1.0, 0.0]\nclass = E", fillcolor="#e58139"] ;
138 -> 144 ;
145 [label="gini = 0.0\nsamples = 0.0%\nvalue = [0.0, 1.0]\nclass = x", fillcolor="#399de5"] ;
137 -> 145 ;
146 [label="Spain <= 0.5\ngini = 0.16\nsamples = 2.4%\nvalue = [0.91, 0.09]\nclass = E", fillcolor="#e78d4c"] ;
128 -> 146 ;
147 [label="Age <= 26.5\ngini = 0.04\nsamples = 1.5%\nvalue = [0.98, 0.02]\nclass = E", fillcolor="#e5833d"] ;
146 -> 147 ;
148 [label="CreditScore <= 672.0\ngini = 0.2\nsamples = 0.1%\nvalue = [0.89, 0.11]\nclass = E", fillcolor="#e89152"] ;
147 -> 148 ;
149 [label="gini = 0.0\nsamples = 0.1%\nvalue = [1.0, 0.0]\nclass = E", fillcolor="#e58139"] ;
148 -> 149 ;
150 [label="gini = 0.0\nsamples = 0.0%\nvalue = [0.0, 1.0]\nclass = x", fillcolor="#399de5"] ;
148 -> 150 ;
151 [label="Balance <= 31046.45\ngini = 0.02\nsamples = 1.5%\nvalue = [0.99, 0.01]\nclass = E", fillcolor="#e5823b"] ;
147 -> 151 ;
152 [label="Tenure <= 2.5\ngini = 0.13\nsamples = 0.2%\nvalue = [0.93, 0.07]\nclass = E", fillcolor="#e78b48"] ;
151 -> 152 ;
153 [label="gini = 0.0\nsamples = 0.1%\nvalue = [1.0, 0.0]\nclass = E", fillcolor="#e58139"] ;
152 -> 153 ;
154 [label="IsActiveMember <= 0.5\ngini = 0.28\nsamples = 0.1%\nvalue = [0.83, 0.17]\nclass = E", fillcolor="#ea9a61"] ;
152 -> 154 ;
155 [label="CreditScore <= 642.0\ngini = 0.38\nsamples = 0.0%\nvalue = [0.75, 0.25]\nclass = E", fillcolor="#eeab7b"] ;
154 -> 155 ;
156 [label="gini = 0.0\nsamples = 0.0%\nvalue = [0.0, 1.0]\nclass = x", fillcolor="#399de5"] ;
155 -> 156 ;
157 [label="gini = 0.0\nsamples = 0.0%\nvalue = [1.0, 0.0]\nclass = E", fillcolor="#e58139"] ;
155 -> 157 ;
158 [label="gini = 0.0\nsamples = 0.0%\nvalue = [1.0, 0.0]\nclass = E", fillcolor="#e58139"] ;
154 -> 158 ;
159 [label="gini = 0.0\nsamples = 1.2%\nvalue = [1.0, 0.0]\nclass = E", fillcolor="#e58139"] ;
151 -> 159 ;
160 [label="CreditScore <= 745.0\ngini = 0.33\nsamples = 0.8%\nvalue = [0.79, 0.21]\nclass = E", fillcolor="#eca26e"] ;
146 -> 160 ;
161 [label="Balance <= 133282.74\ngini = 0.28\nsamples = 0.8%\nvalue = [0.83, 0.17]\nclass = E", fillcolor="#ea9b61"] ;
160 -> 161 ;
162 [label="HasCrCard <= 0.5\ngini = 0.19\nsamples = 0.6%\nvalue = [0.89, 0.11]\nclass = E", fillcolor="#e89051"] ;
161 -> 162 ;
163 [label="Balance <= 26645.93\ngini = 0.13\nsamples = 0.2%\nvalue = [0.93, 0.07]\nclass = E", fillcolor="#e78b48"] ;
162 -> 163 ;
164 [label="CreditScore <= 658.5\ngini = 0.5\nsamples = 0.0%\nvalue = [0.5, 0.5]\nclass = E", fillcolor="#ffffff"] ;
163 -> 164 ;
165 [label="gini = 0.0\nsamples = 0.0%\nvalue = [0.0, 1.0]\nclass = x", fillcolor="#399de5"] ;
164 -> 165 ;
166 [label="gini = 0.0\nsamples = 0.0%\nvalue = [1.0, 0.0]\nclass = E", fillcolor="#e58139"] ;
164 -> 166 ;
167 [label="gini = 0.0\nsamples = 0.1%\nvalue = [1.0, 0.0]\nclass = E", fillcolor="#e58139"] ;
163 -> 167 ;
168 [label="CreditScore <= 613.0\ngini = 0.22\nsamples = 0.4%\nvalue = [0.88, 0.12]\nclass = E", fillcolor="#e99355"] ;
162 -> 168 ;
169 [label="EstimatedSalary <= 90842.6\ngini = 0.49\nsamples = 0.1%\nvalue = [0.56, 0.44]\nclass = E", fillcolor="#fae6d7"] ;
168 -> 169 ;
170 [label="CreditScore <= 599.0\ngini = 0.32\nsamples = 0.1%\nvalue = [0.2, 0.8]\nclass = x", fillcolor="#6ab6ec"] ;
169 -> 170 ;
171 [label="Age <= 28.0\ngini = 0.5\nsamples = 0.0%\nvalue = [0.5, 0.5]\nclass = E", fillcolor="#ffffff"] ;
170 -> 171 ;
172 [label="gini = 0.0\nsamples = 0.0%\nvalue = [0.0, 1.0]\nclass = x", fillcolor="#399de5"] ;
171 -> 172 ;
173 [label="gini = 0.0\nsamples = 0.0%\nvalue = [1.0, 0.0]\nclass = E", fillcolor="#e58139"] ;
171 -> 173 ;
174 [label="gini = 0.0\nsamples = 0.0%\nvalue = [0.0, 1.0]\nclass = x", fillcolor="#399de5"] ;
170 -> 174 ;
175 [label="gini = 0.0\nsamples = 0.0%\nvalue = [1.0, 0.0]\nclass = E", fillcolor="#e58139"] ;
169 -> 175 ;
176 [label="gini = 0.0\nsamples = 0.3%\nvalue = [1.0, 0.0]\nclass = E", fillcolor="#e58139"] ;
168 -> 176 ;
177 [label="Age <= 31.5\ngini = 0.47\nsamples = 0.2%\nvalue = [0.62, 0.38]\nclass = E", fillcolor="#f5d0b5"] ;
161 -> 177 ;
178 [label="IsActiveMember <= 0.5\ngini = 0.28\nsamples = 0.1%\nvalue = [0.17, 0.83]\nclass = x", fillcolor="#61b1ea"] ;
177 -> 178 ;
179 [label="gini = 0.0\nsamples = 0.1%\nvalue = [0.0, 1.0]\nclass = x", fillcolor="#399de5"] ;
178 -> 179 ;
180 [label="gini = 0.0\nsamples = 0.0%\nvalue = [1.0, 0.0]\nclass = E", fillcolor="#e58139"] ;
178 -> 180 ;
181 [label="gini = 0.0\nsamples = 0.1%\nvalue = [1.0, 0.0]\nclass = E", fillcolor="#e58139"] ;
177 -> 181 ;
182 [label="gini = 0.0\nsamples = 0.0%\nvalue = [0.0, 1.0]\nclass = x", fillcolor="#399de5"] ;
160 -> 182 ;
183 [label="Spain <= 0.5\ngini = 0.09\nsamples = 5.4%\nvalue = [0.95, 0.05]\nclass = E", fillcolor="#e68742"] ;
127 -> 183 ;
184 [label="CreditScore <= 845.5\ngini = 0.05\nsamples = 3.7%\nvalue = [0.97, 0.03]\nclass = E", fillcolor="#e6853f"] ;
183 -> 184 ;
185 [label="Tenure <= 8.5\ngini = 0.05\nsamples = 3.6%\nvalue = [0.98, 0.02]\nclass = E", fillcolor="#e6843e"] ;
184 -> 185 ;
186 [label="EstimatedSalary <= 57876.26\ngini = 0.02\nsamples = 2.7%\nvalue = [0.99, 0.01]\nclass = E", fillcolor="#e5823b"] ;
185 -> 186 ;
187 [label="Age <= 30.5\ngini = 0.07\nsamples = 0.7%\nvalue = [0.96, 0.04]\nclass = E", fillcolor="#e68641"] ;
186 -> 187 ;
188 [label="CreditScore <= 660.5\ngini = 0.17\nsamples = 0.4%\nvalue = [0.9, 0.1]\nclass = E", fillcolor="#e88e4e"] ;
187 -> 188 ;
189 [label="Age <= 28.5\ngini = 0.38\nsamples = 0.2%\nvalue = [0.75, 0.25]\nclass = E", fillcolor="#eeab7b"] ;
188 -> 189 ;
190 [label="gini = 0.0\nsamples = 0.1%\nvalue = [1.0, 0.0]\nclass = E", fillcolor="#e58139"] ;
189 -> 190 ;
191 [label="EstimatedSalary <= 51190.72\ngini = 0.5\nsamples = 0.1%\nvalue = [0.5, 0.5]\nclass = E", fillcolor="#ffffff"] ;
189 -> 191 ;
192 [label="gini = 0.0\nsamples = 0.0%\nvalue = [1.0, 0.0]\nclass = E", fillcolor="#e58139"] ;
191 -> 192 ;
193 [label="gini = 0.0\nsamples = 0.0%\nvalue = [0.0, 1.0]\nclass = x", fillcolor="#399de5"] ;
191 -> 193 ;
194 [label="gini = 0.0\nsamples = 0.2%\nvalue = [1.0, 0.0]\nclass = E", fillcolor="#e58139"] ;
188 -> 194 ;
195 [label="gini = 0.0\nsamples = 0.4%\nvalue = [1.0, 0.0]\nclass = E", fillcolor="#e58139"] ;
187 -> 195 ;
196 [label="gini = 0.0\nsamples = 1.9%\nvalue = [1.0, 0.0]\nclass = E", fillcolor="#e58139"] ;
186 -> 196 ;
197 [label="Balance <= 177610.38\ngini = 0.13\nsamples = 0.9%\nvalue = [0.93, 0.07]\nclass = E", fillcolor="#e78b48"] ;
185 -> 197 ;
198 [label="EstimatedSalary <= 190044.07\ngini = 0.07\nsamples = 0.9%\nvalue = [0.96, 0.04]\nclass = E", fillcolor="#e68640"] ;
197 -> 198 ;
199 [label="gini = 0.0\nsamples = 0.9%\nvalue = [1.0, 0.0]\nclass = E", fillcolor="#e58139"] ;
198 -> 199 ;
200 [label="Age <= 33.0\ngini = 0.44\nsamples = 0.0%\nvalue = [0.33, 0.67]\nclass = x", fillcolor="#9ccef2"] ;
198 -> 200 ;
201 [label="gini = 0.0\nsamples = 0.0%\nvalue = [0.0, 1.0]\nclass = x", fillcolor="#399de5"] ;
200 -> 201 ;
202 [label="gini = 0.0\nsamples = 0.0%\nvalue = [1.0, 0.0]\nclass = E", fillcolor="#e58139"] ;
200 -> 202 ;
203 [label="gini = 0.0\nsamples = 0.0%\nvalue = [0.0, 1.0]\nclass = x", fillcolor="#399de5"] ;
197 -> 203 ;
204 [label="Age <= 31.5\ngini = 0.24\nsamples = 0.1%\nvalue = [0.86, 0.14]\nclass = E", fillcolor="#e9965a"] ;
184 -> 204 ;
205 [label="gini = 0.0\nsamples = 0.1%\nvalue = [1.0, 0.0]\nclass = E", fillcolor="#e58139"] ;
204 -> 205 ;
206 [label="HasCrCard <= 0.5\ngini = 0.5\nsamples = 0.0%\nvalue = [0.5, 0.5]\nclass = E", fillcolor="#ffffff"] ;
204 -> 206 ;
207 [label="gini = 0.0\nsamples = 0.0%\nvalue = [1.0, 0.0]\nclass = E", fillcolor="#e58139"] ;
206 -> 207 ;
208 [label="gini = 0.0\nsamples = 0.0%\nvalue = [0.0, 1.0]\nclass = x", fillcolor="#399de5"] ;
206 -> 208 ;
209 [label="IsActiveMember <= 0.5\ngini = 0.15\nsamples = 1.7%\nvalue = [0.92, 0.08]\nclass = E", fillcolor="#e78c4b"] ;
183 -> 209 ;
210 [label="CreditScore <= 524.0\ngini = 0.24\nsamples = 0.8%\nvalue = [0.86, 0.14]\nclass = E", fillcolor="#e9965a"] ;
209 -> 210 ;
211 [label="gini = 0.0\nsamples = 0.0%\nvalue = [0.0, 1.0]\nclass = x", fillcolor="#399de5"] ;
210 -> 211 ;
212 [label="Tenure <= 5.5\ngini = 0.22\nsamples = 0.7%\nvalue = [0.87, 0.13]\nclass = E", fillcolor="#e99356"] ;
210 -> 212 ;
213 [label="Age <= 32.5\ngini = 0.48\nsamples = 0.2%\nvalue = [0.6, 0.4]\nclass = E", fillcolor="#f6d5bd"] ;
212 -> 213 ;
214 [label="gini = 0.0\nsamples = 0.1%\nvalue = [1.0, 0.0]\nclass = E", fillcolor="#e58139"] ;
213 -> 214 ;
215 [label="CreditScore <= 634.5\ngini = 0.49\nsamples = 0.1%\nvalue = [0.43, 0.57]\nclass = x", fillcolor="#cee6f8"] ;
213 -> 215 ;
216 [label="gini = 0.0\nsamples = 0.0%\nvalue = [0.0, 1.0]\nclass = x", fillcolor="#399de5"] ;
215 -> 216 ;
217 [label="gini = 0.0\nsamples = 0.0%\nvalue = [1.0, 0.0]\nclass = E", fillcolor="#e58139"] ;
215 -> 217 ;
218 [label="CreditScore <= 694.0\ngini = 0.12\nsamples = 0.6%\nvalue = [0.93, 0.07]\nclass = E", fillcolor="#e78a47"] ;
212 -> 218 ;
219 [label="EstimatedSalary <= 23158.28\ngini = 0.19\nsamples = 0.3%\nvalue = [0.89, 0.11]\nclass = E", fillcolor="#e89051"] ;
218 -> 219 ;
220 [label="CreditScore <= 662.0\ngini = 0.44\nsamples = 0.0%\nvalue = [0.33, 0.67]\nclass = x", fillcolor="#9ccef2"] ;
219 -> 220 ;
221 [label="gini = 0.0\nsamples = 0.0%\nvalue = [1.0, 0.0]\nclass = E", fillcolor="#e58139"] ;
220 -> 221 ;
222 [label="gini = 0.0\nsamples = 0.0%\nvalue = [0.0, 1.0]\nclass = x", fillcolor="#399de5"] ;
220 -> 222 ;
223 [label="EstimatedSalary <= 93237.77\ngini = 0.08\nsamples = 0.3%\nvalue = [0.96, 0.04]\nclass = E", fillcolor="#e68641"] ;
219 -> 223 ;
224 [label="gini = 0.0\nsamples = 0.2%\nvalue = [1.0, 0.0]\nclass = E", fillcolor="#e58139"] ;
223 -> 224 ;
225 [label="Balance <= 38113.45\ngini = 0.17\nsamples = 0.1%\nvalue = [0.91, 0.09]\nclass = E", fillcolor="#e88e4d"] ;
223 -> 225 ;
226 [label="Tenure <= 8.0\ngini = 0.5\nsamples = 0.0%\nvalue = [0.5, 0.5]\nclass = E", fillcolor="#ffffff"] ;
225 -> 226 ;
227 [label="gini = 0.0\nsamples = 0.0%\nvalue = [0.0, 1.0]\nclass = x", fillcolor="#399de5"] ;
226 -> 227 ;
228 [label="gini = 0.0\nsamples = 0.0%\nvalue = [1.0, 0.0]\nclass = E", fillcolor="#e58139"] ;
226 -> 228 ;
229 [label="gini = 0.0\nsamples = 0.1%\nvalue = [1.0, 0.0]\nclass = E", fillcolor="#e58139"] ;
225 -> 229 ;
230 [label="gini = 0.0\nsamples = 0.2%\nvalue = [1.0, 0.0]\nclass = E", fillcolor="#e58139"] ;
218 -> 230 ;
231 [label="Tenure <= 9.5\ngini = 0.06\nsamples = 0.9%\nvalue = [0.97, 0.03]\nclass = E", fillcolor="#e6853f"] ;
209 -> 231 ;
232 [label="gini = 0.0\nsamples = 0.8%\nvalue = [1.0, 0.0]\nclass = E", fillcolor="#e58139"] ;
231 -> 232 ;
233 [label="CreditScore <= 610.5\ngini = 0.3\nsamples = 0.1%\nvalue = [0.82, 0.18]\nclass = E", fillcolor="#eb9d65"] ;
231 -> 233 ;
234 [label="Balance <= 73755.63\ngini = 0.44\nsamples = 0.0%\nvalue = [0.33, 0.67]\nclass = x", fillcolor="#9ccef2"] ;
233 -> 234 ;
235 [label="gini = 0.0\nsamples = 0.0%\nvalue = [0.0, 1.0]\nclass = x", fillcolor="#399de5"] ;
234 -> 235 ;
236 [label="gini = 0.0\nsamples = 0.0%\nvalue = [1.0, 0.0]\nclass = E", fillcolor="#e58139"] ;
234 -> 236 ;
237 [label="gini = 0.0\nsamples = 0.1%\nvalue = [1.0, 0.0]\nclass = E", fillcolor="#e58139"] ;
233 -> 237 ;
238 [label="HasCrCard <= 0.5\ngini = 0.05\nsamples = 15.5%\nvalue = [0.98, 0.02]\nclass = E", fillcolor="#e6843e"] ;
18 -> 238 ;
239 [label="Spain <= 0.5\ngini = 0.07\nsamples = 4.3%\nvalue = [0.96, 0.04]\nclass = E", fillcolor="#e68641"] ;
238 -> 239 ;
240 [label="Balance <= 193330.07\ngini = 0.05\nsamples = 2.9%\nvalue = [0.97, 0.03]\nclass = E", fillcolor="#e6843e"] ;
239 -> 240 ;
241 [label="EstimatedSalary <= 97790.64\ngini = 0.01\nsamples = 2.9%\nvalue = [0.99, 0.01]\nclass = E", fillcolor="#e5823a"] ;
240 -> 241 ;
242 [label="EstimatedSalary <= 92158.88\ngini = 0.02\nsamples = 1.3%\nvalue = [0.99, 0.01]\nclass = E", fillcolor="#e5823b"] ;
241 -> 242 ;
243 [label="gini = 0.0\nsamples = 1.3%\nvalue = [1.0, 0.0]\nclass = E", fillcolor="#e58139"] ;
242 -> 243 ;
244 [label="gini = 0.0\nsamples = 0.0%\nvalue = [0.0, 1.0]\nclass = x", fillcolor="#399de5"] ;
242 -> 244 ;
245 [label="gini = 0.0\nsamples = 1.5%\nvalue = [1.0, 0.0]\nclass = E", fillcolor="#e58139"] ;
241 -> 245 ;
246 [label="gini = 0.0\nsamples = 0.0%\nvalue = [0.0, 1.0]\nclass = x", fillcolor="#399de5"] ;
240 -> 246 ;
247 [label="EstimatedSalary <= 9065.99\ngini = 0.11\nsamples = 1.4%\nvalue = [0.94, 0.06]\nclass = E", fillcolor="#e78946"] ;
239 -> 247 ;
248 [label="Male <= 0.5\ngini = 0.44\nsamples = 0.1%\nvalue = [0.67, 0.33]\nclass = E", fillcolor="#f2c09c"] ;
247 -> 248 ;
249 [label="IsActiveMember <= 0.5\ngini = 0.47\nsamples = 0.1%\nvalue = [0.62, 0.38]\nclass = E", fillcolor="#f5cdb0"] ;
248 -> 249 ;
250 [label="gini = 0.0\nsamples = 0.0%\nvalue = [1.0, 0.0]\nclass = E", fillcolor="#e58139"] ;
249 -> 250 ;
251 [label="EstimatedSalary <= 7288.09\ngini = 0.48\nsamples = 0.0%\nvalue = [0.4, 0.6]\nclass = x", fillcolor="#bddef6"] ;
249 -> 251 ;
252 [label="gini = 0.0\nsamples = 0.0%\nvalue = [1.0, 0.0]\nclass = E", fillcolor="#e58139"] ;
251 -> 252 ;
253 [label="gini = 0.0\nsamples = 0.0%\nvalue = [0.0, 1.0]\nclass = x", fillcolor="#399de5"] ;
251 -> 253 ;
254 [label="gini = 0.0\nsamples = 0.0%\nvalue = [1.0, 0.0]\nclass = E", fillcolor="#e58139"] ;
248 -> 254 ;
255 [label="Tenure <= 6.5\ngini = 0.06\nsamples = 1.3%\nvalue = [0.97, 0.03]\nclass = E", fillcolor="#e68540"] ;
247 -> 255 ;
256 [label="Age <= 33.5\ngini = 0.11\nsamples = 0.7%\nvalue = [0.94, 0.06]\nclass = E", fillcolor="#e78945"] ;
255 -> 256 ;
257 [label="Balance <= 71847.19\ngini = 0.15\nsamples = 0.5%\nvalue = [0.92, 0.08]\nclass = E", fillcolor="#e78c4b"] ;
256 -> 257 ;
258 [label="gini = 0.0\nsamples = 0.4%\nvalue = [1.0, 0.0]\nclass = E", fillcolor="#e58139"] ;
257 -> 258 ;
259 [label="Balance <= 115283.13\ngini = 0.47\nsamples = 0.1%\nvalue = [0.62, 0.38]\nclass = E", fillcolor="#f5cdb0"] ;
257 -> 259 ;
260 [label="Balance <= 95191.41\ngini = 0.38\nsamples = 0.1%\nvalue = [0.25, 0.75]\nclass = x", fillcolor="#7bbeee"] ;
259 -> 260 ;
261 [label="gini = 0.0\nsamples = 0.0%\nvalue = [0.0, 1.0]\nclass = x", fillcolor="#399de5"] ;
260 -> 261 ;
262 [label="CreditScore <= 701.5\ngini = 0.5\nsamples = 0.0%\nvalue = [0.5, 0.5]\nclass = E", fillcolor="#ffffff"] ;
260 -> 262 ;
263 [label="gini = 0.0\nsamples = 0.0%\nvalue = [0.0, 1.0]\nclass = x", fillcolor="#399de5"] ;
262 -> 263 ;
264 [label="gini = 0.0\nsamples = 0.0%\nvalue = [1.0, 0.0]\nclass = E", fillcolor="#e58139"] ;
262 -> 264 ;
265 [label="gini = 0.0\nsamples = 0.0%\nvalue = [1.0, 0.0]\nclass = E", fillcolor="#e58139"] ;
259 -> 265 ;
266 [label="gini = 0.0\nsamples = 0.2%\nvalue = [1.0, 0.0]\nclass = E", fillcolor="#e58139"] ;
256 -> 266 ;
267 [label="gini = 0.0\nsamples = 0.6%\nvalue = [1.0, 0.0]\nclass = E", fillcolor="#e58139"] ;
255 -> 267 ;
268 [label="Balance <= 50198.4\ngini = 0.04\nsamples = 11.1%\nvalue = [0.98, 0.02]\nclass = E", fillcolor="#e6843d"] ;
238 -> 268 ;
269 [label="Spain <= 0.5\ngini = 0.02\nsamples = 8.7%\nvalue = [0.99, 0.01]\nclass = E", fillcolor="#e5833b"] ;
268 -> 269 ;
270 [label="Age <= 28.5\ngini = 0.03\nsamples = 5.9%\nvalue = [0.99, 0.01]\nclass = E", fillcolor="#e5833c"] ;
269 -> 270 ;
271 [label="Balance <= 21829.16\ngini = 0.06\nsamples = 2.0%\nvalue = [0.97, 0.03]\nclass = E", fillcolor="#e6853f"] ;
270 -> 271 ;
272 [label="CreditScore <= 737.0\ngini = 0.06\nsamples = 2.0%\nvalue = [0.97, 0.03]\nclass = E", fillcolor="#e6853f"] ;
271 -> 272 ;
273 [label="CreditScore <= 734.0\ngini = 0.08\nsamples = 1.4%\nvalue = [0.96, 0.04]\nclass = E", fillcolor="#e68742"] ;
272 -> 273 ;
274 [label="Male <= 0.5\ngini = 0.06\nsamples = 1.3%\nvalue = [0.97, 0.03]\nclass = E", fillcolor="#e68540"] ;
273 -> 274 ;
275 [label="Age <= 27.5\ngini = 0.15\nsamples = 0.6%\nvalue = [0.92, 0.08]\nclass = E", fillcolor="#e78c4a"] ;
274 -> 275 ;
276 [label="gini = 0.0\nsamples = 0.5%\nvalue = [1.0, 0.0]\nclass = E", fillcolor="#e58139"] ;
275 -> 276 ;
277 [label="CreditScore <= 654.0\ngini = 0.48\nsamples = 0.1%\nvalue = [0.4, 0.6]\nclass = x", fillcolor="#bddef6"] ;
275 -> 277 ;
278 [label="CreditScore <= 618.0\ngini = 0.44\nsamples = 0.1%\nvalue = [0.67, 0.33]\nclass = E", fillcolor="#f2c09c"] ;
277 -> 278 ;
279 [label="gini = 0.0\nsamples = 0.0%\nvalue = [0.0, 1.0]\nclass = x", fillcolor="#399de5"] ;
278 -> 279 ;
280 [label="gini = 0.0\nsamples = 0.0%\nvalue = [1.0, 0.0]\nclass = E", fillcolor="#e58139"] ;
278 -> 280 ;
281 [label="gini = 0.0\nsamples = 0.0%\nvalue = [0.0, 1.0]\nclass = x", fillcolor="#399de5"] ;
277 -> 281 ;
282 [label="gini = 0.0\nsamples = 0.7%\nvalue = [1.0, 0.0]\nclass = E", fillcolor="#e58139"] ;
274 -> 282 ;
283 [label="gini = 0.0\nsamples = 0.0%\nvalue = [0.0, 1.0]\nclass = x", fillcolor="#399de5"] ;
273 -> 283 ;
284 [label="gini = 0.0\nsamples = 0.6%\nvalue = [1.0, 0.0]\nclass = E", fillcolor="#e58139"] ;
272 -> 284 ;
285 [label="gini = 0.0\nsamples = 0.0%\nvalue = [1.0, 0.0]\nclass = E", fillcolor="#e58139"] ;
271 -> 285 ;
286 [label="Male <= 0.5\ngini = 0.01\nsamples = 4.0%\nvalue = [0.99, 0.01]\nclass = E", fillcolor="#e5823a"] ;
270 -> 286 ;
287 [label="Age <= 31.5\ngini = 0.02\nsamples = 1.8%\nvalue = [0.99, 0.01]\nclass = E", fillcolor="#e5823b"] ;
286 -> 287 ;
288 [label="Tenure <= 2.5\ngini = 0.04\nsamples = 0.7%\nvalue = [0.98, 0.02]\nclass = E", fillcolor="#e6843d"] ;
287 -> 288 ;
289 [label="CreditScore <= 701.0\ngini = 0.5\nsamples = 0.0%\nvalue = [0.5, 0.5]\nclass = E", fillcolor="#ffffff"] ;
288 -> 289 ;
290 [label="gini = 0.0\nsamples = 0.0%\nvalue = [0.0, 1.0]\nclass = x", fillcolor="#399de5"] ;
289 -> 290 ;
291 [label="gini = 0.0\nsamples = 0.0%\nvalue = [1.0, 0.0]\nclass = E", fillcolor="#e58139"] ;
289 -> 291 ;
292 [label="gini = 0.0\nsamples = 0.7%\nvalue = [1.0, 0.0]\nclass = E", fillcolor="#e58139"] ;
288 -> 292 ;
293 [label="gini = 0.0\nsamples = 1.1%\nvalue = [1.0, 0.0]\nclass = E", fillcolor="#e58139"] ;
287 -> 293 ;
294 [label="CreditScore <= 792.5\ngini = 0.01\nsamples = 2.2%\nvalue = [0.99, 0.01]\nclass = E", fillcolor="#e5823a"] ;
286 -> 294 ;
295 [label="gini = 0.0\nsamples = 1.9%\nvalue = [1.0, 0.0]\nclass = E", fillcolor="#e58139"] ;
294 -> 295 ;
296 [label="Age <= 31.5\ngini = 0.11\nsamples = 0.3%\nvalue = [0.94, 0.06]\nclass = E", fillcolor="#e78945"] ;
294 -> 296 ;
297 [label="gini = 0.0\nsamples = 0.2%\nvalue = [1.0, 0.0]\nclass = E", fillcolor="#e58139"] ;
296 -> 297 ;
298 [label="Tenure <= 1.5\ngini = 0.22\nsamples = 0.1%\nvalue = [0.88, 0.12]\nclass = E", fillcolor="#e99355"] ;
296 -> 298 ;
299 [label="gini = 0.0\nsamples = 0.0%\nvalue = [1.0, 0.0]\nclass = E", fillcolor="#e58139"] ;
298 -> 299 ;
300 [label="Age <= 32.5\ngini = 0.32\nsamples = 0.1%\nvalue = [0.8, 0.2]\nclass = E", fillcolor="#eca06a"] ;
298 -> 300 ;
301 [label="gini = 0.0\nsamples = 0.0%\nvalue = [0.0, 1.0]\nclass = x", fillcolor="#399de5"] ;
300 -> 301 ;
302 [label="gini = 0.0\nsamples = 0.0%\nvalue = [1.0, 0.0]\nclass = E", fillcolor="#e58139"] ;
300 -> 302 ;
303 [label="IsActiveMember <= 0.5\ngini = 0.01\nsamples = 2.7%\nvalue = [0.99, 0.01]\nclass = E", fillcolor="#e5823a"] ;
269 -> 303 ;
304 [label="gini = 0.0\nsamples = 1.3%\nvalue = [1.0, 0.0]\nclass = E", fillcolor="#e58139"] ;
303 -> 304 ;
305 [label="EstimatedSalary <= 19441.73\ngini = 0.02\nsamples = 1.4%\nvalue = [0.99, 0.01]\nclass = E", fillcolor="#e5823b"] ;
303 -> 305 ;
306 [label="EstimatedSalary <= 17386.31\ngini = 0.15\nsamples = 0.2%\nvalue = [0.92, 0.08]\nclass = E", fillcolor="#e78c4b"] ;
305 -> 306 ;
307 [label="gini = 0.0\nsamples = 0.1%\nvalue = [1.0, 0.0]\nclass = E", fillcolor="#e58139"] ;
306 -> 307 ;
308 [label="gini = 0.0\nsamples = 0.0%\nvalue = [0.0, 1.0]\nclass = x", fillcolor="#399de5"] ;
306 -> 308 ;
309 [label="gini = 0.0\nsamples = 1.2%\nvalue = [1.0, 0.0]\nclass = E", fillcolor="#e58139"] ;
305 -> 309 ;
310 [label="CreditScore <= 715.0\ngini = 0.09\nsamples = 2.5%\nvalue = [0.95, 0.05]\nclass = E", fillcolor="#e68742"] ;
268 -> 310 ;
311 [label="Tenure <= 5.5\ngini = 0.12\nsamples = 1.8%\nvalue = [0.93, 0.07]\nclass = E", fillcolor="#e78a47"] ;
310 -> 311 ;
312 [label="Balance <= 59212.9\ngini = 0.26\nsamples = 0.9%\nvalue = [0.85, 0.15]\nclass = E", fillcolor="#ea985d"] ;
311 -> 312 ;
313 [label="gini = 0.0\nsamples = 0.0%\nvalue = [0.0, 1.0]\nclass = x", fillcolor="#399de5"] ;
312 -> 313 ;
314 [label="CreditScore <= 709.5\ngini = 0.21\nsamples = 0.9%\nvalue = [0.88, 0.12]\nclass = E", fillcolor="#e99254"] ;
312 -> 314 ;
315 [label="EstimatedSalary <= 74691.0\ngini = 0.18\nsamples = 0.8%\nvalue = [0.9, 0.1]\nclass = E", fillcolor="#e88f50"] ;
314 -> 315 ;
316 [label="EstimatedSalary <= 51859.02\ngini = 0.42\nsamples = 0.3%\nvalue = [0.71, 0.29]\nclass = E", fillcolor="#f0b58b"] ;
315 -> 316 ;
317 [label="Balance <= 161318.84\ngini = 0.18\nsamples = 0.2%\nvalue = [0.9, 0.1]\nclass = E", fillcolor="#e88f4f"] ;
316 -> 317 ;
318 [label="gini = 0.0\nsamples = 0.1%\nvalue = [1.0, 0.0]\nclass = E", fillcolor="#e58139"] ;
317 -> 318 ;
319 [label="CreditScore <= 621.5\ngini = 0.44\nsamples = 0.0%\nvalue = [0.67, 0.33]\nclass = E", fillcolor="#f2c09c"] ;
317 -> 319 ;
320 [label="gini = 0.0\nsamples = 0.0%\nvalue = [0.0, 1.0]\nclass = x", fillcolor="#399de5"] ;
319 -> 320 ;
321 [label="gini = 0.0\nsamples = 0.0%\nvalue = [1.0, 0.0]\nclass = E", fillcolor="#e58139"] ;
319 -> 321 ;
322 [label="IsActiveMember <= 0.5\ngini = 0.49\nsamples = 0.1%\nvalue = [0.43, 0.57]\nclass = x", fillcolor="#cee6f8"] ;
316 -> 322 ;
323 [label="Male <= 0.5\ngini = 0.44\nsamples = 0.1%\nvalue = [0.67, 0.33]\nclass = E", fillcolor="#f2c09c"] ;
322 -> 323 ;
324 [label="gini = 0.0\nsamples = 0.0%\nvalue = [0.0, 1.0]\nclass = x", fillcolor="#399de5"] ;
323 -> 324 ;
325 [label="gini = 0.0\nsamples = 0.0%\nvalue = [1.0, 0.0]\nclass = E", fillcolor="#e58139"] ;
323 -> 325 ;
326 [label="Male <= 0.5\ngini = 0.38\nsamples = 0.1%\nvalue = [0.25, 0.75]\nclass = x", fillcolor="#7bbeee"] ;
322 -> 326 ;
327 [label="gini = 0.0\nsamples = 0.0%\nvalue = [1.0, 0.0]\nclass = E", fillcolor="#e58139"] ;
326 -> 327 ;
328 [label="gini = 0.0\nsamples = 0.0%\nvalue = [0.0, 1.0]\nclass = x", fillcolor="#399de5"] ;
326 -> 328 ;
329 [label="gini = 0.0\nsamples = 0.5%\nvalue = [1.0, 0.0]\nclass = E", fillcolor="#e58139"] ;
315 -> 329 ;
330 [label="gini = 0.0\nsamples = 0.0%\nvalue = [0.0, 1.0]\nclass = x", fillcolor="#399de5"] ;
314 -> 330 ;
331 [label="gini = 0.0\nsamples = 0.9%\nvalue = [1.0, 0.0]\nclass = E", fillcolor="#e58139"] ;
311 -> 331 ;
332 [label="gini = 0.0\nsamples = 0.7%\nvalue = [1.0, 0.0]\nclass = E", fillcolor="#e58139"] ;
310 -> 332 ;
333 [label="Male <= 0.5\ngini = 0.47\nsamples = 0.5%\nvalue = [0.37, 0.63]\nclass = x", fillcolor="#acd6f4"] ;
17 -> 333 ;
334 [label="EstimatedSalary <= 18958.77\ngini = 0.31\nsamples = 0.3%\nvalue = [0.19, 0.81]\nclass = x", fillcolor="#68b4eb"] ;
333 -> 334 ;
335 [label="gini = 0.0\nsamples = 0.0%\nvalue = [1.0, 0.0]\nclass = E", fillcolor="#e58139"] ;
334 -> 335 ;
336 [label="IsActiveMember <= 0.5\ngini = 0.19\nsamples = 0.3%\nvalue = [0.11, 0.89]\nclass = x", fillcolor="#50a9e8"] ;
334 -> 336 ;
337 [label="gini = 0.0\nsamples = 0.1%\nvalue = [0.0, 1.0]\nclass = x", fillcolor="#399de5"] ;
336 -> 337 ;
338 [label="Balance <= 65464.51\ngini = 0.3\nsamples = 0.2%\nvalue = [0.18, 0.82]\nclass = x", fillcolor="#65b3eb"] ;
336 -> 338 ;
339 [label="Tenure <= 2.5\ngini = 0.41\nsamples = 0.1%\nvalue = [0.29, 0.71]\nclass = x", fillcolor="#88c4ef"] ;
338 -> 339 ;
340 [label="gini = 0.0\nsamples = 0.1%\nvalue = [0.0, 1.0]\nclass = x", fillcolor="#399de5"] ;
339 -> 340 ;
341 [label="gini = 0.0\nsamples = 0.0%\nvalue = [1.0, 0.0]\nclass = E", fillcolor="#e58139"] ;
339 -> 341 ;
342 [label="gini = 0.0\nsamples = 0.0%\nvalue = [0.0, 1.0]\nclass = x", fillcolor="#399de5"] ;
338 -> 342 ;
343 [label="Balance <= 60672.94\ngini = 0.48\nsamples = 0.2%\nvalue = [0.59, 0.41]\nclass = E", fillcolor="#f7d9c4"] ;
333 -> 343 ;
344 [label="CreditScore <= 655.0\ngini = 0.36\nsamples = 0.1%\nvalue = [0.77, 0.23]\nclass = E", fillcolor="#eda774"] ;
343 -> 344 ;
345 [label="CreditScore <= 622.5\ngini = 0.5\nsamples = 0.0%\nvalue = [0.5, 0.5]\nclass = E", fillcolor="#ffffff"] ;
344 -> 345 ;
346 [label="gini = 0.0\nsamples = 0.0%\nvalue = [1.0, 0.0]\nclass = E", fillcolor="#e58139"] ;
345 -> 346 ;
347 [label="gini = 0.0\nsamples = 0.0%\nvalue = [0.0, 1.0]\nclass = x", fillcolor="#399de5"] ;
345 -> 347 ;
348 [label="gini = 0.0\nsamples = 0.1%\nvalue = [1.0, 0.0]\nclass = E", fillcolor="#e58139"] ;
344 -> 348 ;
349 [label="gini = 0.0\nsamples = 0.0%\nvalue = [0.0, 1.0]\nclass = x", fillcolor="#399de5"] ;
343 -> 349 ;
350 [label="EstimatedSalary <= 197252.8\ngini = 0.2\nsamples = 19.5%\nvalue = [0.89, 0.11]\nclass = E", fillcolor="#e89152"] ;
2 -> 350 ;
351 [label="Tenure <= 9.5\ngini = 0.19\nsamples = 19.3%\nvalue = [0.89, 0.11]\nclass = E", fillcolor="#e89051"] ;
350 -> 351 ;
352 [label="IsActiveMember <= 0.5\ngini = 0.18\nsamples = 18.5%\nvalue = [0.9, 0.1]\nclass = E", fillcolor="#e88f50"] ;
351 -> 352 ;
353 [label="CreditScore <= 526.5\ngini = 0.22\nsamples = 9.5%\nvalue = [0.88, 0.12]\nclass = E", fillcolor="#e99355"] ;
352 -> 353 ;
354 [label="Balance <= 95014.45\ngini = 0.09\nsamples = 0.9%\nvalue = [0.95, 0.05]\nclass = E", fillcolor="#e68843"] ;
353 -> 354 ;
355 [label="gini = 0.0\nsamples = 0.5%\nvalue = [1.0, 0.0]\nclass = E", fillcolor="#e58139"] ;
354 -> 355 ;
356 [label="CreditScore <= 443.5\ngini = 0.22\nsamples = 0.3%\nvalue = [0.88, 0.12]\nclass = E", fillcolor="#e99355"] ;
354 -> 356 ;
357 [label="Tenure <= 5.5\ngini = 0.5\nsamples = 0.0%\nvalue = [0.5, 0.5]\nclass = E", fillcolor="#ffffff"] ;
356 -> 357 ;
358 [label="gini = 0.0\nsamples = 0.0%\nvalue = [0.0, 1.0]\nclass = x", fillcolor="#399de5"] ;
357 -> 358 ;
359 [label="gini = 0.0\nsamples = 0.0%\nvalue = [1.0, 0.0]\nclass = E", fillcolor="#e58139"] ;
357 -> 359 ;
360 [label="Tenure <= 3.5\ngini = 0.17\nsamples = 0.3%\nvalue = [0.91, 0.09]\nclass = E", fillcolor="#e88e4d"] ;
356 -> 360 ;
361 [label="gini = 0.0\nsamples = 0.2%\nvalue = [1.0, 0.0]\nclass = E", fillcolor="#e58139"] ;
360 -> 361 ;
362 [label="CreditScore <= 483.0\ngini = 0.41\nsamples = 0.1%\nvalue = [0.71, 0.29]\nclass = E", fillcolor="#efb388"] ;
360 -> 362 ;
363 [label="gini = 0.0\nsamples = 0.0%\nvalue = [0.0, 1.0]\nclass = x", fillcolor="#399de5"] ;
362 -> 363 ;
364 [label="HasCrCard <= 0.5\ngini = 0.28\nsamples = 0.1%\nvalue = [0.83, 0.17]\nclass = E", fillcolor="#ea9a61"] ;
362 -> 364 ;
365 [label="gini = 0.0\nsamples = 0.1%\nvalue = [1.0, 0.0]\nclass = E", fillcolor="#e58139"] ;
364 -> 365 ;
366 [label="Tenure <= 6.5\ngini = 0.5\nsamples = 0.0%\nvalue = [0.5, 0.5]\nclass = E", fillcolor="#ffffff"] ;
364 -> 366 ;
367 [label="gini = 0.0\nsamples = 0.0%\nvalue = [0.0, 1.0]\nclass = x", fillcolor="#399de5"] ;
366 -> 367 ;
368 [label="gini = 0.0\nsamples = 0.0%\nvalue = [1.0, 0.0]\nclass = E", fillcolor="#e58139"] ;
366 -> 368 ;
369 [label="Balance <= 177047.62\ngini = 0.23\nsamples = 8.7%\nvalue = [0.87, 0.13]\nclass = E", fillcolor="#e99457"] ;
353 -> 369 ;
370 [label="Age <= 39.5\ngini = 0.21\nsamples = 8.5%\nvalue = [0.88, 0.12]\nclass = E", fillcolor="#e99355"] ;
369 -> 370 ;
371 [label="CreditScore <= 530.0\ngini = 0.18\nsamples = 6.1%\nvalue = [0.9, 0.1]\nclass = E", fillcolor="#e88f4f"] ;
370 -> 371 ;
372 [label="gini = 0.0\nsamples = 0.0%\nvalue = [0.0, 1.0]\nclass = x", fillcolor="#399de5"] ;
371 -> 372 ;
373 [label="Balance <= 148479.06\ngini = 0.17\nsamples = 6.1%\nvalue = [0.91, 0.09]\nclass = E", fillcolor="#e88e4d"] ;
371 -> 373 ;
374 [label="Male <= 0.5\ngini = 0.19\nsamples = 5.5%\nvalue = [0.9, 0.1]\nclass = E", fillcolor="#e89050"] ;
373 -> 374 ;
375 [label="EstimatedSalary <= 21518.86\ngini = 0.25\nsamples = 2.2%\nvalue = [0.86, 0.14]\nclass = E", fillcolor="#e9965a"] ;
374 -> 375 ;
376 [label="gini = 0.0\nsamples = 0.3%\nvalue = [1.0, 0.0]\nclass = E", fillcolor="#e58139"] ;
375 -> 376 ;
377 [label="CreditScore <= 674.0\ngini = 0.29\nsamples = 1.9%\nvalue = [0.83, 0.17]\nclass = E", fillcolor="#ea9b62"] ;
375 -> 377 ;
378 [label="Age <= 38.5\ngini = 0.2\nsamples = 1.0%\nvalue = [0.89, 0.11]\nclass = E", fillcolor="#e89152"] ;
377 -> 378 ;
379 [label="Age <= 36.5\ngini = 0.07\nsamples = 0.8%\nvalue = [0.96, 0.04]\nclass = E", fillcolor="#e68641"] ;
378 -> 379 ;
380 [label="Balance <= 89872.14\ngini = 0.32\nsamples = 0.2%\nvalue = [0.8, 0.2]\nclass = E", fillcolor="#eca06a"] ;
379 -> 380 ;
381 [label="CreditScore <= 631.5\ngini = 0.22\nsamples = 0.1%\nvalue = [0.88, 0.12]\nclass = E", fillcolor="#e99355"] ;
380 -> 381 ;
382 [label="Tenure <= 2.0\ngini = 0.44\nsamples = 0.0%\nvalue = [0.67, 0.33]\nclass = E", fillcolor="#f2c09c"] ;
381 -> 382 ;
383 [label="gini = 0.0\nsamples = 0.0%\nvalue = [1.0, 0.0]\nclass = E", fillcolor="#e58139"] ;
382 -> 383 ;
384 [label="gini = 0.0\nsamples = 0.0%\nvalue = [0.0, 1.0]\nclass = x", fillcolor="#399de5"] ;
382 -> 384 ;
385 [label="gini = 0.0\nsamples = 0.1%\nvalue = [1.0, 0.0]\nclass = E", fillcolor="#e58139"] ;
381 -> 385 ;
386 [label="EstimatedSalary <= 98597.13\ngini = 0.5\nsamples = 0.0%\nvalue = [0.5, 0.5]\nclass = E", fillcolor="#ffffff"] ;
380 -> 386 ;
387 [label="gini = 0.0\nsamples = 0.0%\nvalue = [1.0, 0.0]\nclass = E", fillcolor="#e58139"] ;
386 -> 387 ;
388 [label="gini = 0.0\nsamples = 0.0%\nvalue = [0.0, 1.0]\nclass = x", fillcolor="#399de5"] ;
386 -> 388 ;
389 [label="gini = 0.0\nsamples = 0.6%\nvalue = [1.0, 0.0]\nclass = E", fillcolor="#e58139"] ;
379 -> 389 ;
390 [label="Balance <= 75750.62\ngini = 0.46\nsamples = 0.2%\nvalue = [0.65, 0.35]\nclass = E", fillcolor="#f3c6a5"] ;
378 -> 390 ;
391 [label="CreditScore <= 624.5\ngini = 0.44\nsamples = 0.1%\nvalue = [0.33, 0.67]\nclass = x", fillcolor="#9ccef2"] ;
390 -> 391 ;
392 [label="gini = 0.0\nsamples = 0.1%\nvalue = [0.0, 1.0]\nclass = x", fillcolor="#399de5"] ;
391 -> 392 ;
393 [label="gini = 0.0\nsamples = 0.0%\nvalue = [1.0, 0.0]\nclass = E", fillcolor="#e58139"] ;
391 -> 393 ;
394 [label="gini = 0.0\nsamples = 0.1%\nvalue = [1.0, 0.0]\nclass = E", fillcolor="#e58139"] ;
390 -> 394 ;
395 [label="Spain <= 0.5\ngini = 0.38\nsamples = 0.9%\nvalue = [0.75, 0.25]\nclass = E", fillcolor="#eeab7b"] ;
377 -> 395 ;
396 [label="HasCrCard <= 0.5\ngini = 0.5\nsamples = 0.5%\nvalue = [0.54, 0.46]\nclass = E", fillcolor="#fbede3"] ;
395 -> 396 ;
397 [label="Age <= 38.5\ngini = 0.42\nsamples = 0.2%\nvalue = [0.7, 0.3]\nclass = E", fillcolor="#f0b78e"] ;
396 -> 397 ;
398 [label="Tenure <= 4.0\ngini = 0.47\nsamples = 0.2%\nvalue = [0.62, 0.38]\nclass = E", fillcolor="#f5cdb0"] ;
397 -> 398 ;
399 [label="Balance <= 104054.09\ngini = 0.44\nsamples = 0.1%\nvalue = [0.33, 0.67]\nclass = x", fillcolor="#9ccef2"] ;
398 -> 399 ;
400 [label="gini = 0.0\nsamples = 0.0%\nvalue = [0.0, 1.0]\nclass = x", fillcolor="#399de5"] ;
399 -> 400 ;
401 [label="gini = 0.0\nsamples = 0.0%\nvalue = [1.0, 0.0]\nclass = E", fillcolor="#e58139"] ;
399 -> 401 ;
402 [label="EstimatedSalary <= 133082.53\ngini = 0.32\nsamples = 0.1%\nvalue = [0.8, 0.2]\nclass = E", fillcolor="#eca06a"] ;
398 -> 402 ;
403 [label="gini = 0.0\nsamples = 0.1%\nvalue = [1.0, 0.0]\nclass = E", fillcolor="#e58139"] ;
402 -> 403 ;
404 [label="gini = 0.0\nsamples = 0.0%\nvalue = [0.0, 1.0]\nclass = x", fillcolor="#399de5"] ;
402 -> 404 ;
405 [label="gini = 0.0\nsamples = 0.0%\nvalue = [1.0, 0.0]\nclass = E", fillcolor="#e58139"] ;
397 -> 405 ;
406 [label="NumOfProducts <= 1.5\ngini = 0.49\nsamples = 0.3%\nvalue = [0.44, 0.56]\nclass = x", fillcolor="#d3e9f9"] ;
396 -> 406 ;
407 [label="CreditScore <= 722.5\ngini = 0.5\nsamples = 0.2%\nvalue = [0.55, 0.45]\nclass = E", fillcolor="#fbeade"] ;
406 -> 407 ;
408 [label="gini = 0.0\nsamples = 0.0%\nvalue = [0.0, 1.0]\nclass = x", fillcolor="#399de5"] ;
407 -> 408 ;
409 [label="Balance <= 129989.27\ngini = 0.44\nsamples = 0.1%\nvalue = [0.67, 0.33]\nclass = E", fillcolor="#f2c09c"] ;
407 -> 409 ;
410 [label="CreditScore <= 768.5\ngini = 0.24\nsamples = 0.1%\nvalue = [0.86, 0.14]\nclass = E", fillcolor="#e9965a"] ;
409 -> 410 ;
411 [label="gini = 0.0\nsamples = 0.0%\nvalue = [1.0, 0.0]\nclass = E", fillcolor="#e58139"] ;
410 -> 411 ;
412 [label="EstimatedSalary <= 106335.3\ngini = 0.44\nsamples = 0.0%\nvalue = [0.67, 0.33]\nclass = E", fillcolor="#f2c09c"] ;
410 -> 412 ;
413 [label="gini = 0.0\nsamples = 0.0%\nvalue = [1.0, 0.0]\nclass = E", fillcolor="#e58139"] ;
412 -> 413 ;
414 [label="gini = 0.0\nsamples = 0.0%\nvalue = [0.0, 1.0]\nclass = x", fillcolor="#399de5"] ;
412 -> 414 ;
415 [label="gini = 0.0\nsamples = 0.0%\nvalue = [0.0, 1.0]\nclass = x", fillcolor="#399de5"] ;
409 -> 415 ;
416 [label="EstimatedSalary <= 78940.99\ngini = 0.32\nsamples = 0.1%\nvalue = [0.2, 0.8]\nclass = x", fillcolor="#6ab6ec"] ;
406 -> 416 ;
417 [label="EstimatedSalary <= 62016.47\ngini = 0.5\nsamples = 0.0%\nvalue = [0.5, 0.5]\nclass = E", fillcolor="#ffffff"] ;
416 -> 417 ;
418 [label="gini = 0.0\nsamples = 0.0%\nvalue = [0.0, 1.0]\nclass = x", fillcolor="#399de5"] ;
417 -> 418 ;
419 [label="gini = 0.0\nsamples = 0.0%\nvalue = [1.0, 0.0]\nclass = E", fillcolor="#e58139"] ;
417 -> 419 ;
420 [label="gini = 0.0\nsamples = 0.1%\nvalue = [0.0, 1.0]\nclass = x", fillcolor="#399de5"] ;
416 -> 420 ;
421 [label="EstimatedSalary <= 123635.58\ngini = 0.12\nsamples = 0.4%\nvalue = [0.93, 0.07]\nclass = E", fillcolor="#e78a47"] ;
395 -> 421 ;
422 [label="gini = 0.0\nsamples = 0.3%\nvalue = [1.0, 0.0]\nclass = E", fillcolor="#e58139"] ;
421 -> 422 ;
423 [label="Tenure <= 3.0\ngini = 0.5\nsamples = 0.1%\nvalue = [0.5, 0.5]\nclass = E", fillcolor="#ffffff"] ;
421 -> 423 ;
424 [label="gini = 0.0\nsamples = 0.0%\nvalue = [1.0, 0.0]\nclass = E", fillcolor="#e58139"] ;
423 -> 424 ;
425 [label="gini = 0.0\nsamples = 0.0%\nvalue = [0.0, 1.0]\nclass = x", fillcolor="#399de5"] ;
423 -> 425 ;
426 [label="Age <= 37.5\ngini = 0.14\nsamples = 3.3%\nvalue = [0.93, 0.07]\nclass = E", fillcolor="#e78b49"] ;
374 -> 426 ;
427 [label="Spain <= 0.5\ngini = 0.21\nsamples = 1.7%\nvalue = [0.88, 0.12]\nclass = E", fillcolor="#e99254"] ;
426 -> 427 ;
428 [label="EstimatedSalary <= 65164.93\ngini = 0.16\nsamples = 1.2%\nvalue = [0.91, 0.09]\nclass = E", fillcolor="#e88d4c"] ;
427 -> 428 ;
429 [label="gini = 0.0\nsamples = 0.4%\nvalue = [1.0, 0.0]\nclass = E", fillcolor="#e58139"] ;
428 -> 429 ;
430 [label="Balance <= 117791.78\ngini = 0.23\nsamples = 0.8%\nvalue = [0.87, 0.13]\nclass = E", fillcolor="#e99456"] ;
428 -> 430 ;
431 [label="Balance <= 116308.83\ngini = 0.31\nsamples = 0.5%\nvalue = [0.81, 0.19]\nclass = E", fillcolor="#eb9e67"] ;
430 -> 431 ;
432 [label="CreditScore <= 604.5\ngini = 0.24\nsamples = 0.5%\nvalue = [0.86, 0.14]\nclass = E", fillcolor="#e9965a"] ;
431 -> 432 ;
433 [label="Age <= 36.5\ngini = 0.42\nsamples = 0.1%\nvalue = [0.7, 0.3]\nclass = E", fillcolor="#f0b78e"] ;
432 -> 433 ;
434 [label="gini = 0.0\nsamples = 0.1%\nvalue = [1.0, 0.0]\nclass = E", fillcolor="#e58139"] ;
433 -> 434 ;
435 [label="HasCrCard <= 0.5\ngini = 0.48\nsamples = 0.1%\nvalue = [0.4, 0.6]\nclass = x", fillcolor="#bddef6"] ;
433 -> 435 ;
436 [label="gini = 0.0\nsamples = 0.0%\nvalue = [1.0, 0.0]\nclass = E", fillcolor="#e58139"] ;
435 -> 436 ;
437 [label="EstimatedSalary <= 114244.49\ngini = 0.38\nsamples = 0.0%\nvalue = [0.25, 0.75]\nclass = x", fillcolor="#7bbeee"] ;
435 -> 437 ;
438 [label="gini = 0.0\nsamples = 0.0%\nvalue = [0.0, 1.0]\nclass = x", fillcolor="#399de5"] ;
437 -> 438 ;
439 [label="gini = 0.0\nsamples = 0.0%\nvalue = [1.0, 0.0]\nclass = E", fillcolor="#e58139"] ;
437 -> 439 ;
440 [label="NumOfProducts <= 2.5\ngini = 0.15\nsamples = 0.4%\nvalue = [0.92, 0.08]\nclass = E", fillcolor="#e78c4a"] ;
432 -> 440 ;
441 [label="Tenure <= 3.5\ngini = 0.08\nsamples = 0.3%\nvalue = [0.96, 0.04]\nclass = E", fillcolor="#e68742"] ;
440 -> 441 ;
442 [label="HasCrCard <= 0.5\ngini = 0.22\nsamples = 0.1%\nvalue = [0.88, 0.12]\nclass = E", fillcolor="#e99355"] ;
441 -> 442 ;
443 [label="gini = 0.0\nsamples = 0.0%\nvalue = [1.0, 0.0]\nclass = E", fillcolor="#e58139"] ;
442 -> 443 ;
444 [label="Age <= 36.5\ngini = 0.24\nsamples = 0.1%\nvalue = [0.86, 0.14]\nclass = E", fillcolor="#e9965a"] ;
442 -> 444 ;
445 [label="gini = 0.0\nsamples = 0.0%\nvalue = [1.0, 0.0]\nclass = E", fillcolor="#e58139"] ;
444 -> 445 ;
446 [label="Balance <= 52781.5\ngini = 0.28\nsamples = 0.1%\nvalue = [0.83, 0.17]\nclass = E", fillcolor="#ea9a61"] ;
444 -> 446 ;
447 [label="gini = 0.0\nsamples = 0.0%\nvalue = [0.0, 1.0]\nclass = x", fillcolor="#399de5"] ;
446 -> 447 ;
448 [label="gini = 0.0\nsamples = 0.0%\nvalue = [1.0, 0.0]\nclass = E", fillcolor="#e58139"] ;
446 -> 448 ;
449 [label="gini = 0.0\nsamples = 0.2%\nvalue = [1.0, 0.0]\nclass = E", fillcolor="#e58139"] ;
441 -> 449 ;
450 [label="Age <= 36.5\ngini = 0.5\nsamples = 0.0%\nvalue = [0.5, 0.5]\nclass = E", fillcolor="#ffffff"] ;
440 -> 450 ;
451 [label="gini = 0.0\nsamples = 0.0%\nvalue = [0.0, 1.0]\nclass = x", fillcolor="#399de5"] ;
450 -> 451 ;
452 [label="gini = 0.0\nsamples = 0.0%\nvalue = [1.0, 0.0]\nclass = E", fillcolor="#e58139"] ;
450 -> 452 ;
453 [label="gini = 0.0\nsamples = 0.0%\nvalue = [0.0, 1.0]\nclass = x", fillcolor="#399de5"] ;
431 -> 453 ;
454 [label="gini = 0.0\nsamples = 0.2%\nvalue = [1.0, 0.0]\nclass = E", fillcolor="#e58139"] ;
430 -> 454 ;
455 [label="Age <= 36.5\ngini = 0.34\nsamples = 0.4%\nvalue = [0.79, 0.21]\nclass = E", fillcolor="#eca36f"] ;
427 -> 455 ;
456 [label="Tenure <= 7.5\ngini = 0.23\nsamples = 0.2%\nvalue = [0.87, 0.13]\nclass = E", fillcolor="#e99457"] ;
455 -> 456 ;
457 [label="Balance <= 38983.75\ngini = 0.14\nsamples = 0.2%\nvalue = [0.92, 0.08]\nclass = E", fillcolor="#e78c49"] ;
456 -> 457 ;
458 [label="gini = 0.0\nsamples = 0.1%\nvalue = [1.0, 0.0]\nclass = E", fillcolor="#e58139"] ;
457 -> 458 ;
459 [label="CreditScore <= 604.0\ngini = 0.32\nsamples = 0.1%\nvalue = [0.8, 0.2]\nclass = E", fillcolor="#eca06a"] ;
457 -> 459 ;
460 [label="gini = 0.0\nsamples = 0.0%\nvalue = [0.0, 1.0]\nclass = x", fillcolor="#399de5"] ;
459 -> 460 ;
461 [label="gini = 0.0\nsamples = 0.0%\nvalue = [1.0, 0.0]\nclass = E", fillcolor="#e58139"] ;
459 -> 461 ;
462 [label="EstimatedSalary <= 120461.29\ngini = 0.5\nsamples = 0.0%\nvalue = [0.5, 0.5]\nclass = E", fillcolor="#ffffff"] ;
456 -> 462 ;
463 [label="gini = 0.0\nsamples = 0.0%\nvalue = [0.0, 1.0]\nclass = x", fillcolor="#399de5"] ;
462 -> 463 ;
464 [label="gini = 0.0\nsamples = 0.0%\nvalue = [1.0, 0.0]\nclass = E", fillcolor="#e58139"] ;
462 -> 464 ;
465 [label="Tenure <= 2.5\ngini = 0.43\nsamples = 0.2%\nvalue = [0.69, 0.31]\nclass = E", fillcolor="#f1b991"] ;
455 -> 465 ;
466 [label="EstimatedSalary <= 41372.63\ngini = 0.44\nsamples = 0.1%\nvalue = [0.33, 0.67]\nclass = x", fillcolor="#9ccef2"] ;
465 -> 466 ;
467 [label="gini = 0.0\nsamples = 0.0%\nvalue = [1.0, 0.0]\nclass = E", fillcolor="#e58139"] ;
466 -> 467 ;
468 [label="CreditScore <= 588.0\ngini = 0.32\nsamples = 0.1%\nvalue = [0.2, 0.8]\nclass = x", fillcolor="#6ab6ec"] ;
466 -> 468 ;
469 [label="gini = 0.0\nsamples = 0.0%\nvalue = [1.0, 0.0]\nclass = E", fillcolor="#e58139"] ;
468 -> 469 ;
470 [label="gini = 0.0\nsamples = 0.0%\nvalue = [0.0, 1.0]\nclass = x", fillcolor="#399de5"] ;
468 -> 470 ;
471 [label="gini = 0.0\nsamples = 0.1%\nvalue = [1.0, 0.0]\nclass = E", fillcolor="#e58139"] ;
465 -> 471 ;
472 [label="Tenure <= 0.5\ngini = 0.05\nsamples = 1.6%\nvalue = [0.97, 0.03]\nclass = E", fillcolor="#e6853f"] ;
426 -> 472 ;
473 [label="Balance <= 46337.47\ngini = 0.32\nsamples = 0.1%\nvalue = [0.8, 0.2]\nclass = E", fillcolor="#eca06a"] ;
472 -> 473 ;
474 [label="Spain <= 0.5\ngini = 0.48\nsamples = 0.1%\nvalue = [0.6, 0.4]\nclass = E", fillcolor="#f6d5bd"] ;
473 -> 474 ;
475 [label="gini = 0.0\nsamples = 0.0%\nvalue = [1.0, 0.0]\nclass = E", fillcolor="#e58139"] ;
474 -> 475 ;
476 [label="CreditScore <= 655.5\ngini = 0.44\nsamples = 0.0%\nvalue = [0.33, 0.67]\nclass = x", fillcolor="#9ccef2"] ;
474 -> 476 ;
477 [label="gini = 0.0\nsamples = 0.0%\nvalue = [0.0, 1.0]\nclass = x", fillcolor="#399de5"] ;
476 -> 477 ;
478 [label="gini = 0.0\nsamples = 0.0%\nvalue = [1.0, 0.0]\nclass = E", fillcolor="#e58139"] ;
476 -> 478 ;
479 [label="gini = 0.0\nsamples = 0.1%\nvalue = [1.0, 0.0]\nclass = E", fillcolor="#e58139"] ;
473 -> 479 ;
480 [label="EstimatedSalary <= 174628.21\ngini = 0.02\nsamples = 1.5%\nvalue = [0.99, 0.01]\nclass = E", fillcolor="#e5823b"] ;
472 -> 480 ;
481 [label="gini = 0.0\nsamples = 1.2%\nvalue = [1.0, 0.0]\nclass = E", fillcolor="#e58139"] ;
480 -> 481 ;
482 [label="Balance <= 147122.85\ngini = 0.1\nsamples = 0.2%\nvalue = [0.95, 0.05]\nclass = E", fillcolor="#e68844"] ;
480 -> 482 ;
483 [label="gini = 0.0\nsamples = 0.2%\nvalue = [1.0, 0.0]\nclass = E", fillcolor="#e58139"] ;
482 -> 483 ;
484 [label="gini = 0.0\nsamples = 0.0%\nvalue = [0.0, 1.0]\nclass = x", fillcolor="#399de5"] ;
482 -> 484 ;
485 [label="Balance <= 169126.12\ngini = 0.04\nsamples = 0.6%\nvalue = [0.98, 0.02]\nclass = E", fillcolor="#e5833d"] ;
373 -> 485 ;
486 [label="gini = 0.0\nsamples = 0.5%\nvalue = [1.0, 0.0]\nclass = E", fillcolor="#e58139"] ;
485 -> 486 ;
487 [label="Spain <= 0.5\ngini = 0.22\nsamples = 0.1%\nvalue = [0.88, 0.12]\nclass = E", fillcolor="#e99355"] ;
485 -> 487 ;
488 [label="gini = 0.0\nsamples = 0.0%\nvalue = [0.0, 1.0]\nclass = x", fillcolor="#399de5"] ;
487 -> 488 ;
489 [label="gini = 0.0\nsamples = 0.1%\nvalue = [1.0, 0.0]\nclass = E", fillcolor="#e58139"] ;
487 -> 489 ;
490 [label="Age <= 40.5\ngini = 0.29\nsamples = 2.4%\nvalue = [0.82, 0.18]\nclass = E", fillcolor="#eb9d64"] ;
370 -> 490 ;
491 [label="Tenure <= 8.5\ngini = 0.31\nsamples = 1.3%\nvalue = [0.81, 0.19]\nclass = E", fillcolor="#eb9f68"] ;
490 -> 491 ;
492 [label="CreditScore <= 601.0\ngini = 0.23\nsamples = 1.2%\nvalue = [0.87, 0.13]\nclass = E", fillcolor="#e99457"] ;
491 -> 492 ;
493 [label="Balance <= 166472.56\ngini = 0.36\nsamples = 0.3%\nvalue = [0.76, 0.24]\nclass = E", fillcolor="#eda876"] ;
492 -> 493 ;
494 [label="Tenure <= 5.5\ngini = 0.3\nsamples = 0.3%\nvalue = [0.81, 0.19]\nclass = E", fillcolor="#eb9e67"] ;
493 -> 494 ;
495 [label="CreditScore <= 565.5\ngini = 0.18\nsamples = 0.2%\nvalue = [0.9, 0.1]\nclass = E", fillcolor="#e88f4f"] ;
494 -> 495 ;
496 [label="CreditScore <= 561.0\ngini = 0.5\nsamples = 0.0%\nvalue = [0.5, 0.5]\nclass = E", fillcolor="#ffffff"] ;
495 -> 496 ;
497 [label="gini = 0.0\nsamples = 0.0%\nvalue = [1.0, 0.0]\nclass = E", fillcolor="#e58139"] ;
496 -> 497 ;
498 [label="gini = 0.0\nsamples = 0.0%\nvalue = [0.0, 1.0]\nclass = x", fillcolor="#399de5"] ;
496 -> 498 ;
499 [label="gini = 0.0\nsamples = 0.1%\nvalue = [1.0, 0.0]\nclass = E", fillcolor="#e58139"] ;
495 -> 499 ;
500 [label="CreditScore <= 567.0\ngini = 0.44\nsamples = 0.1%\nvalue = [0.67, 0.33]\nclass = E", fillcolor="#f2c09c"] ;
494 -> 500 ;
501 [label="gini = 0.0\nsamples = 0.0%\nvalue = [1.0, 0.0]\nclass = E", fillcolor="#e58139"] ;
500 -> 501 ;
502 [label="NumOfProducts <= 1.5\ngini = 0.5\nsamples = 0.1%\nvalue = [0.5, 0.5]\nclass = E", fillcolor="#ffffff"] ;
500 -> 502 ;
503 [label="gini = 0.0\nsamples = 0.0%\nvalue = [0.0, 1.0]\nclass = x", fillcolor="#399de5"] ;
502 -> 503 ;
504 [label="gini = 0.0\nsamples = 0.0%\nvalue = [1.0, 0.0]\nclass = E", fillcolor="#e58139"] ;
502 -> 504 ;
505 [label="gini = 0.0\nsamples = 0.0%\nvalue = [0.0, 1.0]\nclass = x", fillcolor="#399de5"] ;
493 -> 505 ;
506 [label="EstimatedSalary <= 106982.39\ngini = 0.19\nsamples = 0.9%\nvalue = [0.9, 0.1]\nclass = E", fillcolor="#e89050"] ;
492 -> 506 ;
507 [label="gini = 0.0\nsamples = 0.4%\nvalue = [1.0, 0.0]\nclass = E", fillcolor="#e58139"] ;
506 -> 507 ;
508 [label="CreditScore <= 669.5\ngini = 0.3\nsamples = 0.5%\nvalue = [0.81, 0.19]\nclass = E", fillcolor="#eb9e67"] ;
506 -> 508 ;
509 [label="gini = 0.0\nsamples = 0.2%\nvalue = [1.0, 0.0]\nclass = E", fillcolor="#e58139"] ;
508 -> 509 ;
510 [label="Balance <= 100179.43\ngini = 0.44\nsamples = 0.3%\nvalue = [0.67, 0.33]\nclass = E", fillcolor="#f2c09c"] ;
508 -> 510 ;
511 [label="EstimatedSalary <= 175624.34\ngini = 0.32\nsamples = 0.2%\nvalue = [0.8, 0.2]\nclass = E", fillcolor="#eca06a"] ;
510 -> 511 ;
512 [label="Balance <= 77975.08\ngini = 0.24\nsamples = 0.2%\nvalue = [0.86, 0.14]\nclass = E", fillcolor="#e9965a"] ;
511 -> 512 ;
513 [label="NumOfProducts <= 1.5\ngini = 0.17\nsamples = 0.2%\nvalue = [0.91, 0.09]\nclass = E", fillcolor="#e88e4d"] ;
512 -> 513 ;
514 [label="CreditScore <= 794.5\ngini = 0.32\nsamples = 0.1%\nvalue = [0.8, 0.2]\nclass = E", fillcolor="#eca06a"] ;
513 -> 514 ;
515 [label="gini = 0.0\nsamples = 0.0%\nvalue = [1.0, 0.0]\nclass = E", fillcolor="#e58139"] ;
514 -> 515 ;
516 [label="EstimatedSalary <= 155584.26\ngini = 0.44\nsamples = 0.0%\nvalue = [0.67, 0.33]\nclass = E", fillcolor="#f2c09c"] ;
514 -> 516 ;
517 [label="gini = 0.0\nsamples = 0.0%\nvalue = [0.0, 1.0]\nclass = x", fillcolor="#399de5"] ;
516 -> 517 ;
518 [label="gini = 0.0\nsamples = 0.0%\nvalue = [1.0, 0.0]\nclass = E", fillcolor="#e58139"] ;
516 -> 518 ;
519 [label="gini = 0.0\nsamples = 0.1%\nvalue = [1.0, 0.0]\nclass = E", fillcolor="#e58139"] ;
513 -> 519 ;
520 [label="Spain <= 0.5\ngini = 0.44\nsamples = 0.0%\nvalue = [0.67, 0.33]\nclass = E", fillcolor="#f2c09c"] ;
512 -> 520 ;
521 [label="gini = 0.0\nsamples = 0.0%\nvalue = [1.0, 0.0]\nclass = E", fillcolor="#e58139"] ;
520 -> 521 ;
522 [label="gini = 0.0\nsamples = 0.0%\nvalue = [0.0, 1.0]\nclass = x", fillcolor="#399de5"] ;
520 -> 522 ;
523 [label="gini = 0.0\nsamples = 0.0%\nvalue = [0.0, 1.0]\nclass = x", fillcolor="#399de5"] ;
511 -> 523 ;
524 [label="gini = 0.0\nsamples = 0.0%\nvalue = [0.0, 1.0]\nclass = x", fillcolor="#399de5"] ;
510 -> 524 ;
525 [label="Balance <= 126163.19\ngini = 0.5\nsamples = 0.2%\nvalue = [0.5, 0.5]\nclass = E", fillcolor="#ffffff"] ;
491 -> 525 ;
526 [label="CreditScore <= 579.5\ngini = 0.46\nsamples = 0.2%\nvalue = [0.64, 0.36]\nclass = E", fillcolor="#f4c9aa"] ;
525 -> 526 ;
527 [label="gini = 0.0\nsamples = 0.0%\nvalue = [0.0, 1.0]\nclass = x", fillcolor="#399de5"] ;
526 -> 527 ;
528 [label="EstimatedSalary <= 185637.87\ngini = 0.22\nsamples = 0.1%\nvalue = [0.88, 0.12]\nclass = E", fillcolor="#e99355"] ;
526 -> 528 ;
529 [label="gini = 0.0\nsamples = 0.1%\nvalue = [1.0, 0.0]\nclass = E", fillcolor="#e58139"] ;
528 -> 529 ;
530 [label="gini = 0.0\nsamples = 0.0%\nvalue = [0.0, 1.0]\nclass = x", fillcolor="#399de5"] ;
528 -> 530 ;
531 [label="gini = 0.0\nsamples = 0.0%\nvalue = [0.0, 1.0]\nclass = x", fillcolor="#399de5"] ;
525 -> 531 ;
532 [label="Balance <= 126878.71\ngini = 0.28\nsamples = 1.1%\nvalue = [0.83, 0.17]\nclass = E", fillcolor="#ea9a61"] ;
490 -> 532 ;
533 [label="Tenure <= 5.5\ngini = 0.2\nsamples = 0.9%\nvalue = [0.89, 0.11]\nclass = E", fillcolor="#e89153"] ;
532 -> 533 ;
534 [label="CreditScore <= 671.5\ngini = 0.04\nsamples = 0.5%\nvalue = [0.98, 0.02]\nclass = E", fillcolor="#e6843d"] ;
533 -> 534 ;
535 [label="Spain <= 0.5\ngini = 0.09\nsamples = 0.3%\nvalue = [0.95, 0.05]\nclass = E", fillcolor="#e68743"] ;
534 -> 535 ;
536 [label="gini = 0.0\nsamples = 0.2%\nvalue = [1.0, 0.0]\nclass = E", fillcolor="#e58139"] ;
535 -> 536 ;
537 [label="CreditScore <= 640.0\ngini = 0.2\nsamples = 0.1%\nvalue = [0.89, 0.11]\nclass = E", fillcolor="#e89152"] ;
535 -> 537 ;
538 [label="gini = 0.0\nsamples = 0.1%\nvalue = [1.0, 0.0]\nclass = E", fillcolor="#e58139"] ;
537 -> 538 ;
539 [label="gini = 0.0\nsamples = 0.0%\nvalue = [0.0, 1.0]\nclass = x", fillcolor="#399de5"] ;
537 -> 539 ;
540 [label="gini = 0.0\nsamples = 0.2%\nvalue = [1.0, 0.0]\nclass = E", fillcolor="#e58139"] ;
534 -> 540 ;
541 [label="Tenure <= 8.5\ngini = 0.41\nsamples = 0.3%\nvalue = [0.71, 0.29]\nclass = E", fillcolor="#f0b58b"] ;
533 -> 541 ;
542 [label="CreditScore <= 760.5\ngini = 0.48\nsamples = 0.2%\nvalue = [0.61, 0.39]\nclass = E", fillcolor="#f6d1b7"] ;
541 -> 542 ;
543 [label="HasCrCard <= 0.5\ngini = 0.5\nsamples = 0.2%\nvalue = [0.5, 0.5]\nclass = E", fillcolor="#ffffff"] ;
542 -> 543 ;
544 [label="CreditScore <= 638.5\ngini = 0.48\nsamples = 0.1%\nvalue = [0.6, 0.4]\nclass = E", fillcolor="#f6d5bd"] ;
543 -> 544 ;
545 [label="EstimatedSalary <= 42927.97\ngini = 0.44\nsamples = 0.0%\nvalue = [0.33, 0.67]\nclass = x", fillcolor="#9ccef2"] ;
544 -> 545 ;
546 [label="gini = 0.0\nsamples = 0.0%\nvalue = [1.0, 0.0]\nclass = E", fillcolor="#e58139"] ;
545 -> 546 ;
547 [label="gini = 0.0\nsamples = 0.0%\nvalue = [0.0, 1.0]\nclass = x", fillcolor="#399de5"] ;
545 -> 547 ;
548 [label="gini = 0.0\nsamples = 0.0%\nvalue = [1.0, 0.0]\nclass = E", fillcolor="#e58139"] ;
544 -> 548 ;
549 [label="EstimatedSalary <= 121140.43\ngini = 0.49\nsamples = 0.1%\nvalue = [0.44, 0.56]\nclass = x", fillcolor="#d7ebfa"] ;
543 -> 549 ;
550 [label="gini = 0.0\nsamples = 0.1%\nvalue = [1.0, 0.0]\nclass = E", fillcolor="#e58139"] ;
549 -> 550 ;
551 [label="Balance <= 109981.04\ngini = 0.28\nsamples = 0.1%\nvalue = [0.17, 0.83]\nclass = x", fillcolor="#61b1ea"] ;
549 -> 551 ;
552 [label="gini = 0.0\nsamples = 0.0%\nvalue = [0.0, 1.0]\nclass = x", fillcolor="#399de5"] ;
551 -> 552 ;
553 [label="gini = 0.0\nsamples = 0.0%\nvalue = [1.0, 0.0]\nclass = E", fillcolor="#e58139"] ;
551 -> 553 ;
554 [label="gini = 0.0\nsamples = 0.0%\nvalue = [1.0, 0.0]\nclass = E", fillcolor="#e58139"] ;
542 -> 554 ;
555 [label="gini = 0.0\nsamples = 0.1%\nvalue = [1.0, 0.0]\nclass = E", fillcolor="#e58139"] ;
541 -> 555 ;
556 [label="Tenure <= 4.5\ngini = 0.49\nsamples = 0.2%\nvalue = [0.57, 0.43]\nclass = E", fillcolor="#f8e0ce"] ;
532 -> 556 ;
557 [label="CreditScore <= 705.0\ngini = 0.49\nsamples = 0.1%\nvalue = [0.44, 0.56]\nclass = x", fillcolor="#d7ebfa"] ;
556 -> 557 ;
558 [label="NumOfProducts <= 1.5\ngini = 0.38\nsamples = 0.1%\nvalue = [0.75, 0.25]\nclass = E", fillcolor="#eeab7b"] ;
557 -> 558 ;
559 [label="EstimatedSalary <= 65590.94\ngini = 0.44\nsamples = 0.0%\nvalue = [0.67, 0.33]\nclass = E", fillcolor="#f2c09c"] ;
558 -> 559 ;
560 [label="gini = 0.0\nsamples = 0.0%\nvalue = [1.0, 0.0]\nclass = E", fillcolor="#e58139"] ;
559 -> 560 ;
561 [label="gini = 0.0\nsamples = 0.0%\nvalue = [0.0, 1.0]\nclass = x", fillcolor="#399de5"] ;
559 -> 561 ;
562 [label="gini = 0.0\nsamples = 0.0%\nvalue = [1.0, 0.0]\nclass = E", fillcolor="#e58139"] ;
558 -> 562 ;
563 [label="Tenure <= 3.5\ngini = 0.32\nsamples = 0.0%\nvalue = [0.2, 0.8]\nclass = x", fillcolor="#6ab6ec"] ;
557 -> 563 ;
564 [label="gini = 0.0\nsamples = 0.0%\nvalue = [1.0, 0.0]\nclass = E", fillcolor="#e58139"] ;
563 -> 564 ;
565 [label="gini = 0.0\nsamples = 0.0%\nvalue = [0.0, 1.0]\nclass = x", fillcolor="#399de5"] ;
563 -> 565 ;
566 [label="NumOfProducts <= 1.5\ngini = 0.32\nsamples = 0.1%\nvalue = [0.8, 0.2]\nclass = E", fillcolor="#eca06a"] ;
556 -> 566 ;
567 [label="gini = 0.0\nsamples = 0.0%\nvalue = [0.0, 1.0]\nclass = x", fillcolor="#399de5"] ;
566 -> 567 ;
568 [label="gini = 0.0\nsamples = 0.0%\nvalue = [1.0, 0.0]\nclass = E", fillcolor="#e58139"] ;
566 -> 568 ;
569 [label="EstimatedSalary <= 45363.77\ngini = 0.44\nsamples = 0.1%\nvalue = [0.33, 0.67]\nclass = x", fillcolor="#9ccef2"] ;
369 -> 569 ;
570 [label="gini = 0.0\nsamples = 0.0%\nvalue = [1.0, 0.0]\nclass = E", fillcolor="#e58139"] ;
569 -> 570 ;
571 [label="Age <= 38.5\ngini = 0.24\nsamples = 0.1%\nvalue = [0.14, 0.86]\nclass = x", fillcolor="#5aade9"] ;
569 -> 571 ;
572 [label="Balance <= 184675.59\ngini = 0.44\nsamples = 0.0%\nvalue = [0.33, 0.67]\nclass = x", fillcolor="#9ccef2"] ;
571 -> 572 ;
573 [label="gini = 0.0\nsamples = 0.0%\nvalue = [1.0, 0.0]\nclass = E", fillcolor="#e58139"] ;
572 -> 573 ;
574 [label="gini = 0.0\nsamples = 0.0%\nvalue = [0.0, 1.0]\nclass = x", fillcolor="#399de5"] ;
572 -> 574 ;
575 [label="gini = 0.0\nsamples = 0.0%\nvalue = [0.0, 1.0]\nclass = x", fillcolor="#399de5"] ;
571 -> 575 ;
576 [label="CreditScore <= 490.5\ngini = 0.15\nsamples = 9.0%\nvalue = [0.92, 0.08]\nclass = E", fillcolor="#e78c4a"] ;
352 -> 576 ;
577 [label="Spain <= 0.5\ngini = 0.38\nsamples = 0.4%\nvalue = [0.75, 0.25]\nclass = E", fillcolor="#eeab7b"] ;
576 -> 577 ;
578 [label="EstimatedSalary <= 40957.06\ngini = 0.48\nsamples = 0.3%\nvalue = [0.6, 0.4]\nclass = E", fillcolor="#f6d5bd"] ;
577 -> 578 ;
579 [label="gini = 0.0\nsamples = 0.1%\nvalue = [1.0, 0.0]\nclass = E", fillcolor="#e58139"] ;
578 -> 579 ;
580 [label="NumOfProducts <= 1.5\ngini = 0.5\nsamples = 0.2%\nvalue = [0.47, 0.53]\nclass = x", fillcolor="#e6f3fc"] ;
578 -> 580 ;
581 [label="EstimatedSalary <= 65021.6\ngini = 0.47\nsamples = 0.2%\nvalue = [0.38, 0.62]\nclass = x", fillcolor="#b5daf5"] ;
580 -> 581 ;
582 [label="gini = 0.0\nsamples = 0.0%\nvalue = [0.0, 1.0]\nclass = x", fillcolor="#399de5"] ;
581 -> 582 ;
583 [label="HasCrCard <= 0.5\ngini = 0.41\nsamples = 0.1%\nvalue = [0.71, 0.29]\nclass = E", fillcolor="#efb388"] ;
581 -> 583 ;
584 [label="Tenure <= 7.5\ngini = 0.44\nsamples = 0.1%\nvalue = [0.33, 0.67]\nclass = x", fillcolor="#9ccef2"] ;
583 -> 584 ;
585 [label="gini = 0.0\nsamples = 0.0%\nvalue = [0.0, 1.0]\nclass = x", fillcolor="#399de5"] ;
584 -> 585 ;
586 [label="Age <= 38.5\ngini = 0.5\nsamples = 0.0%\nvalue = [0.5, 0.5]\nclass = E", fillcolor="#ffffff"] ;
584 -> 586 ;
587 [label="gini = 0.0\nsamples = 0.0%\nvalue = [0.0, 1.0]\nclass = x", fillcolor="#399de5"] ;
586 -> 587 ;
588 [label="gini = 0.0\nsamples = 0.0%\nvalue = [1.0, 0.0]\nclass = E", fillcolor="#e58139"] ;
586 -> 588 ;
589 [label="gini = 0.0\nsamples = 0.0%\nvalue = [1.0, 0.0]\nclass = E", fillcolor="#e58139"] ;
583 -> 589 ;
590 [label="gini = 0.0\nsamples = 0.0%\nvalue = [1.0, 0.0]\nclass = E", fillcolor="#e58139"] ;
580 -> 590 ;
591 [label="gini = 0.0\nsamples = 0.1%\nvalue = [1.0, 0.0]\nclass = E", fillcolor="#e58139"] ;
577 -> 591 ;
592 [label="NumOfProducts <= 2.5\ngini = 0.13\nsamples = 8.6%\nvalue = [0.93, 0.07]\nclass = E", fillcolor="#e78b48"] ;
576 -> 592 ;
593 [label="Balance <= 138549.88\ngini = 0.12\nsamples = 8.5%\nvalue = [0.93, 0.07]\nclass = E", fillcolor="#e78a47"] ;
592 -> 593 ;
594 [label="NumOfProducts <= 1.5\ngini = 0.11\nsamples = 7.2%\nvalue = [0.94, 0.06]\nclass = E", fillcolor="#e78945"] ;
593 -> 594 ;
595 [label="Balance <= 90411.29\ngini = 0.15\nsamples = 3.5%\nvalue = [0.92, 0.08]\nclass = E", fillcolor="#e78c4a"] ;
594 -> 595 ;
596 [label="Balance <= 89325.15\ngini = 0.23\nsamples = 1.7%\nvalue = [0.87, 0.13]\nclass = E", fillcolor="#e99558"] ;
595 -> 596 ;
597 [label="CreditScore <= 620.5\ngini = 0.22\nsamples = 1.7%\nvalue = [0.87, 0.13]\nclass = E", fillcolor="#e99356"] ;
596 -> 597 ;
598 [label="HasCrCard <= 0.5\ngini = 0.39\nsamples = 0.7%\nvalue = [0.73, 0.27]\nclass = E", fillcolor="#eeae80"] ;
597 -> 598 ;
599 [label="Male <= 0.5\ngini = 0.49\nsamples = 0.2%\nvalue = [0.57, 0.43]\nclass = E", fillcolor="#f8e0ce"] ;
598 -> 599 ;
600 [label="gini = 0.0\nsamples = 0.1%\nvalue = [0.0, 1.0]\nclass = x", fillcolor="#399de5"] ;
599 -> 600 ;
601 [label="Balance <= 44507.8\ngini = 0.2\nsamples = 0.2%\nvalue = [0.89, 0.11]\nclass = E", fillcolor="#e89152"] ;
599 -> 601 ;
602 [label="Age <= 38.0\ngini = 0.22\nsamples = 0.1%\nvalue = [0.88, 0.12]\nclass = E", fillcolor="#e99355"] ;
601 -> 602 ;
603 [label="Spain <= 0.5\ngini = 0.44\nsamples = 0.0%\nvalue = [0.67, 0.33]\nclass = E", fillcolor="#f2c09c"] ;
602 -> 603 ;
604 [label="gini = 0.0\nsamples = 0.0%\nvalue = [0.0, 1.0]\nclass = x", fillcolor="#399de5"] ;
603 -> 604 ;
605 [label="gini = 0.0\nsamples = 0.0%\nvalue = [1.0, 0.0]\nclass = E", fillcolor="#e58139"] ;
603 -> 605 ;
606 [label="gini = 0.0\nsamples = 0.1%\nvalue = [1.0, 0.0]\nclass = E", fillcolor="#e58139"] ;
602 -> 606 ;
607 [label="gini = 0.0\nsamples = 0.0%\nvalue = [1.0, 0.0]\nclass = E", fillcolor="#e58139"] ;
601 -> 607 ;
608 [label="Tenure <= 2.5\ngini = 0.32\nsamples = 0.5%\nvalue = [0.8, 0.2]\nclass = E", fillcolor="#eca06a"] ;
598 -> 608 ;
609 [label="gini = 0.0\nsamples = 0.2%\nvalue = [1.0, 0.0]\nclass = E", fillcolor="#e58139"] ;
608 -> 609 ;
610 [label="Tenure <= 7.5\ngini = 0.43\nsamples = 0.3%\nvalue = [0.68, 0.32]\nclass = E", fillcolor="#f1bc95"] ;
608 -> 610 ;
611 [label="EstimatedSalary <= 59535.48\ngini = 0.5\nsamples = 0.2%\nvalue = [0.5, 0.5]\nclass = E", fillcolor="#ffffff"] ;
610 -> 611 ;
612 [label="Spain <= 0.5\ngini = 0.28\nsamples = 0.1%\nvalue = [0.17, 0.83]\nclass = x", fillcolor="#61b1ea"] ;
611 -> 612 ;
613 [label="gini = 0.0\nsamples = 0.1%\nvalue = [0.0, 1.0]\nclass = x", fillcolor="#399de5"] ;
612 -> 613 ;
614 [label="EstimatedSalary <= 18859.54\ngini = 0.44\nsamples = 0.1%\nvalue = [0.33, 0.67]\nclass = x", fillcolor="#9ccef2"] ;
612 -> 614 ;
615 [label="gini = 0.0\nsamples = 0.0%\nvalue = [0.0, 1.0]\nclass = x", fillcolor="#399de5"] ;
614 -> 615 ;
616 [label="gini = 0.0\nsamples = 0.0%\nvalue = [1.0, 0.0]\nclass = E", fillcolor="#e58139"] ;
614 -> 616 ;
617 [label="Age <= 39.5\ngini = 0.38\nsamples = 0.1%\nvalue = [0.75, 0.25]\nclass = E", fillcolor="#eeab7b"] ;
611 -> 617 ;
618 [label="gini = 0.0\nsamples = 0.1%\nvalue = [1.0, 0.0]\nclass = E", fillcolor="#e58139"] ;
617 -> 618 ;
619 [label="gini = 0.0\nsamples = 0.0%\nvalue = [0.0, 1.0]\nclass = x", fillcolor="#399de5"] ;
617 -> 619 ;
620 [label="gini = 0.0\nsamples = 0.1%\nvalue = [1.0, 0.0]\nclass = E", fillcolor="#e58139"] ;
610 -> 620 ;
621 [label="EstimatedSalary <= 12480.25\ngini = 0.06\nsamples = 0.9%\nvalue = [0.97, 0.03]\nclass = E", fillcolor="#e6853f"] ;
597 -> 621 ;
622 [label="EstimatedSalary <= 9924.05\ngini = 0.44\nsamples = 0.1%\nvalue = [0.67, 0.33]\nclass = E", fillcolor="#f2c09c"] ;
621 -> 622 ;
623 [label="gini = 0.0\nsamples = 0.0%\nvalue = [1.0, 0.0]\nclass = E", fillcolor="#e58139"] ;
622 -> 623 ;
624 [label="gini = 0.0\nsamples = 0.0%\nvalue = [0.0, 1.0]\nclass = x", fillcolor="#399de5"] ;
622 -> 624 ;
625 [label="Tenure <= 6.5\ngini = 0.03\nsamples = 0.9%\nvalue = [0.98, 0.02]\nclass = E", fillcolor="#e5833c"] ;
621 -> 625 ;
626 [label="gini = 0.0\nsamples = 0.7%\nvalue = [1.0, 0.0]\nclass = E", fillcolor="#e58139"] ;
625 -> 626 ;
627 [label="CreditScore <= 695.0\ngini = 0.13\nsamples = 0.2%\nvalue = [0.93, 0.07]\nclass = E", fillcolor="#e78b48"] ;
625 -> 627 ;
628 [label="gini = 0.0\nsamples = 0.1%\nvalue = [1.0, 0.0]\nclass = E", fillcolor="#e58139"] ;
627 -> 628 ;
629 [label="Tenure <= 7.5\ngini = 0.24\nsamples = 0.1%\nvalue = [0.86, 0.14]\nclass = E", fillcolor="#e9965a"] ;
627 -> 629 ;
630 [label="HasCrCard <= 0.5\ngini = 0.5\nsamples = 0.0%\nvalue = [0.5, 0.5]\nclass = E", fillcolor="#ffffff"] ;
629 -> 630 ;
631 [label="gini = 0.0\nsamples = 0.0%\nvalue = [0.0, 1.0]\nclass = x", fillcolor="#399de5"] ;
630 -> 631 ;
632 [label="gini = 0.0\nsamples = 0.0%\nvalue = [1.0, 0.0]\nclass = E", fillcolor="#e58139"] ;
630 -> 632 ;
633 [label="gini = 0.0\nsamples = 0.0%\nvalue = [1.0, 0.0]\nclass = E", fillcolor="#e58139"] ;
629 -> 633 ;
634 [label="gini = 0.0\nsamples = 0.0%\nvalue = [0.0, 1.0]\nclass = x", fillcolor="#399de5"] ;
596 -> 634 ;
635 [label="Balance <= 118613.66\ngini = 0.06\nsamples = 1.8%\nvalue = [0.97, 0.03]\nclass = E", fillcolor="#e6853f"] ;
595 -> 635 ;
636 [label="Male <= 0.5\ngini = 0.12\nsamples = 0.9%\nvalue = [0.93, 0.07]\nclass = E", fillcolor="#e78a47"] ;
635 -> 636 ;
637 [label="CreditScore <= 709.5\ngini = 0.18\nsamples = 0.3%\nvalue = [0.9, 0.1]\nclass = E", fillcolor="#e88f4f"] ;
636 -> 637 ;
638 [label="gini = 0.0\nsamples = 0.2%\nvalue = [1.0, 0.0]\nclass = E", fillcolor="#e58139"] ;
637 -> 638 ;
639 [label="Balance <= 115765.24\ngini = 0.5\nsamples = 0.0%\nvalue = [0.5, 0.5]\nclass = E", fillcolor="#ffffff"] ;
637 -> 639 ;
640 [label="gini = 0.0\nsamples = 0.0%\nvalue = [1.0, 0.0]\nclass = E", fillcolor="#e58139"] ;
639 -> 640 ;
641 [label="gini = 0.0\nsamples = 0.0%\nvalue = [0.0, 1.0]\nclass = x", fillcolor="#399de5"] ;
639 -> 641 ;
642 [label="CreditScore <= 539.5\ngini = 0.09\nsamples = 0.6%\nvalue = [0.95, 0.05]\nclass = E", fillcolor="#e68743"] ;
636 -> 642 ;
643 [label="HasCrCard <= 0.5\ngini = 0.38\nsamples = 0.1%\nvalue = [0.75, 0.25]\nclass = E", fillcolor="#eeab7b"] ;
642 -> 643 ;
644 [label="Age <= 37.5\ngini = 0.5\nsamples = 0.0%\nvalue = [0.5, 0.5]\nclass = E", fillcolor="#ffffff"] ;
643 -> 644 ;
645 [label="gini = 0.0\nsamples = 0.0%\nvalue = [1.0, 0.0]\nclass = E", fillcolor="#e58139"] ;
644 -> 645 ;
646 [label="gini = 0.0\nsamples = 0.0%\nvalue = [0.0, 1.0]\nclass = x", fillcolor="#399de5"] ;
644 -> 646 ;
647 [label="gini = 0.0\nsamples = 0.0%\nvalue = [1.0, 0.0]\nclass = E", fillcolor="#e58139"] ;
643 -> 647 ;
648 [label="EstimatedSalary <= 66853.73\ngini = 0.05\nsamples = 0.5%\nvalue = [0.97, 0.03]\nclass = E", fillcolor="#e6843e"] ;
642 -> 648 ;
649 [label="EstimatedSalary <= 65113.79\ngini = 0.38\nsamples = 0.1%\nvalue = [0.75, 0.25]\nclass = E", fillcolor="#eeab7b"] ;
648 -> 649 ;
650 [label="gini = 0.0\nsamples = 0.1%\nvalue = [1.0, 0.0]\nclass = E", fillcolor="#e58139"] ;
649 -> 650 ;
651 [label="gini = 0.0\nsamples = 0.0%\nvalue = [0.0, 1.0]\nclass = x", fillcolor="#399de5"] ;
649 -> 651 ;
652 [label="gini = 0.0\nsamples = 0.4%\nvalue = [1.0, 0.0]\nclass = E", fillcolor="#e58139"] ;
648 -> 652 ;
653 [label="gini = 0.0\nsamples = 1.0%\nvalue = [1.0, 0.0]\nclass = E", fillcolor="#e58139"] ;
635 -> 653 ;
654 [label="Spain <= 0.5\ngini = 0.07\nsamples = 3.7%\nvalue = [0.96, 0.04]\nclass = E", fillcolor="#e68641"] ;
594 -> 654 ;
655 [label="Balance <= 128396.71\ngini = 0.03\nsamples = 2.5%\nvalue = [0.98, 0.02]\nclass = E", fillcolor="#e5833c"] ;
654 -> 655 ;
656 [label="EstimatedSalary <= 133640.36\ngini = 0.02\nsamples = 2.4%\nvalue = [0.99, 0.01]\nclass = E", fillcolor="#e5823b"] ;
655 -> 656 ;
657 [label="gini = 0.0\nsamples = 1.6%\nvalue = [1.0, 0.0]\nclass = E", fillcolor="#e58139"] ;
656 -> 657 ;
658 [label="HasCrCard <= 0.5\ngini = 0.07\nsamples = 0.7%\nvalue = [0.96, 0.04]\nclass = E", fillcolor="#e68640"] ;
656 -> 658 ;
659 [label="CreditScore <= 671.0\ngini = 0.16\nsamples = 0.3%\nvalue = [0.91, 0.09]\nclass = E", fillcolor="#e78d4c"] ;
658 -> 659 ;
660 [label="gini = 0.0\nsamples = 0.2%\nvalue = [1.0, 0.0]\nclass = E", fillcolor="#e58139"] ;
659 -> 660 ;
661 [label="EstimatedSalary <= 142948.32\ngini = 0.38\nsamples = 0.1%\nvalue = [0.75, 0.25]\nclass = E", fillcolor="#eeab7b"] ;
659 -> 661 ;
662 [label="gini = 0.0\nsamples = 0.0%\nvalue = [0.0, 1.0]\nclass = x", fillcolor="#399de5"] ;
661 -> 662 ;
663 [label="gini = 0.0\nsamples = 0.1%\nvalue = [1.0, 0.0]\nclass = E", fillcolor="#e58139"] ;
661 -> 663 ;
664 [label="gini = 0.0\nsamples = 0.4%\nvalue = [1.0, 0.0]\nclass = E", fillcolor="#e58139"] ;
658 -> 664 ;
665 [label="CreditScore <= 685.5\ngini = 0.44\nsamples = 0.1%\nvalue = [0.67, 0.33]\nclass = E", fillcolor="#f2c09c"] ;
655 -> 665 ;
666 [label="gini = 0.0\nsamples = 0.0%\nvalue = [1.0, 0.0]\nclass = E", fillcolor="#e58139"] ;
665 -> 666 ;
667 [label="Tenure <= 1.5\ngini = 0.5\nsamples = 0.0%\nvalue = [0.5, 0.5]\nclass = E", fillcolor="#ffffff"] ;
665 -> 667 ;
668 [label="gini = 0.0\nsamples = 0.0%\nvalue = [1.0, 0.0]\nclass = E", fillcolor="#e58139"] ;
667 -> 668 ;
669 [label="gini = 0.0\nsamples = 0.0%\nvalue = [0.0, 1.0]\nclass = x", fillcolor="#399de5"] ;
667 -> 669 ;
670 [label="CreditScore <= 811.5\ngini = 0.15\nsamples = 1.2%\nvalue = [0.92, 0.08]\nclass = E", fillcolor="#e78d4b"] ;
654 -> 670 ;
671 [label="Tenure <= 6.5\ngini = 0.12\nsamples = 1.2%\nvalue = [0.94, 0.06]\nclass = E", fillcolor="#e78a47"] ;
670 -> 671 ;
672 [label="gini = 0.0\nsamples = 0.7%\nvalue = [1.0, 0.0]\nclass = E", fillcolor="#e58139"] ;
671 -> 672 ;
673 [label="Age <= 39.5\ngini = 0.29\nsamples = 0.4%\nvalue = [0.82, 0.18]\nclass = E", fillcolor="#eb9c64"] ;
671 -> 673 ;
674 [label="Age <= 37.5\ngini = 0.15\nsamples = 0.4%\nvalue = [0.92, 0.08]\nclass = E", fillcolor="#e78c4b"] ;
673 -> 674 ;
675 [label="gini = 0.0\nsamples = 0.2%\nvalue = [1.0, 0.0]\nclass = E", fillcolor="#e58139"] ;
674 -> 675 ;
676 [label="Tenure <= 8.5\ngini = 0.26\nsamples = 0.2%\nvalue = [0.85, 0.15]\nclass = E", fillcolor="#ea985d"] ;
674 -> 676 ;
677 [label="Tenure <= 7.5\ngini = 0.44\nsamples = 0.1%\nvalue = [0.67, 0.33]\nclass = E", fillcolor="#f2c09c"] ;
676 -> 677 ;
678 [label="gini = 0.0\nsamples = 0.1%\nvalue = [1.0, 0.0]\nclass = E", fillcolor="#e58139"] ;
677 -> 678 ;
679 [label="gini = 0.0\nsamples = 0.0%\nvalue = [0.0, 1.0]\nclass = x", fillcolor="#399de5"] ;
677 -> 679 ;
680 [label="gini = 0.0\nsamples = 0.1%\nvalue = [1.0, 0.0]\nclass = E", fillcolor="#e58139"] ;
676 -> 680 ;
681 [label="Balance <= 52145.7\ngini = 0.38\nsamples = 0.0%\nvalue = [0.25, 0.75]\nclass = x", fillcolor="#7bbeee"] ;
673 -> 681 ;
682 [label="gini = 0.0\nsamples = 0.0%\nvalue = [0.0, 1.0]\nclass = x", fillcolor="#399de5"] ;
681 -> 682 ;
683 [label="gini = 0.0\nsamples = 0.0%\nvalue = [1.0, 0.0]\nclass = E", fillcolor="#e58139"] ;
681 -> 683 ;
684 [label="Tenure <= 6.0\ngini = 0.48\nsamples = 0.1%\nvalue = [0.6, 0.4]\nclass = E", fillcolor="#f6d5bd"] ;
670 -> 684 ;
685 [label="gini = 0.0\nsamples = 0.0%\nvalue = [1.0, 0.0]\nclass = E", fillcolor="#e58139"] ;
684 -> 685 ;
686 [label="Male <= 0.5\ngini = 0.44\nsamples = 0.0%\nvalue = [0.33, 0.67]\nclass = x", fillcolor="#9ccef2"] ;
684 -> 686 ;
687 [label="gini = 0.0\nsamples = 0.0%\nvalue = [0.0, 1.0]\nclass = x", fillcolor="#399de5"] ;
686 -> 687 ;
688 [label="gini = 0.0\nsamples = 0.0%\nvalue = [1.0, 0.0]\nclass = E", fillcolor="#e58139"] ;
686 -> 688 ;
689 [label="Age <= 40.5\ngini = 0.2\nsamples = 1.3%\nvalue = [0.89, 0.11]\nclass = E", fillcolor="#e89152"] ;
593 -> 689 ;
690 [label="Male <= 0.5\ngini = 0.17\nsamples = 1.2%\nvalue = [0.9, 0.1]\nclass = E", fillcolor="#e88e4e"] ;
689 -> 690 ;
691 [label="CreditScore <= 532.5\ngini = 0.28\nsamples = 0.5%\nvalue = [0.83, 0.17]\nclass = E", fillcolor="#ea9a61"] ;
690 -> 691 ;
692 [label="Balance <= 161638.53\ngini = 0.5\nsamples = 0.1%\nvalue = [0.5, 0.5]\nclass = E", fillcolor="#ffffff"] ;
691 -> 692 ;
693 [label="gini = 0.0\nsamples = 0.0%\nvalue = [0.0, 1.0]\nclass = x", fillcolor="#399de5"] ;
692 -> 693 ;
694 [label="gini = 0.0\nsamples = 0.0%\nvalue = [1.0, 0.0]\nclass = E", fillcolor="#e58139"] ;
692 -> 694 ;
695 [label="EstimatedSalary <= 80890.02\ngini = 0.22\nsamples = 0.5%\nvalue = [0.88, 0.12]\nclass = E", fillcolor="#e99355"] ;
691 -> 695 ;
696 [label="CreditScore <= 682.5\ngini = 0.42\nsamples = 0.2%\nvalue = [0.7, 0.3]\nclass = E", fillcolor="#f0b78e"] ;
695 -> 696 ;
697 [label="Balance <= 144056.26\ngini = 0.5\nsamples = 0.1%\nvalue = [0.5, 0.5]\nclass = E", fillcolor="#ffffff"] ;
696 -> 697 ;
698 [label="gini = 0.0\nsamples = 0.0%\nvalue = [1.0, 0.0]\nclass = E", fillcolor="#e58139"] ;
697 -> 698 ;
699 [label="EstimatedSalary <= 32775.41\ngini = 0.38\nsamples = 0.1%\nvalue = [0.25, 0.75]\nclass = x", fillcolor="#7bbeee"] ;
697 -> 699 ;
700 [label="gini = 0.0\nsamples = 0.0%\nvalue = [1.0, 0.0]\nclass = E", fillcolor="#e58139"] ;
699 -> 700 ;
701 [label="gini = 0.0\nsamples = 0.0%\nvalue = [0.0, 1.0]\nclass = x", fillcolor="#399de5"] ;
699 -> 701 ;
702 [label="gini = 0.0\nsamples = 0.1%\nvalue = [1.0, 0.0]\nclass = E", fillcolor="#e58139"] ;
696 -> 702 ;
703 [label="Tenure <= 4.5\ngini = 0.09\nsamples = 0.3%\nvalue = [0.95, 0.05]\nclass = E", fillcolor="#e68742"] ;
695 -> 703 ;
704 [label="gini = 0.0\nsamples = 0.2%\nvalue = [1.0, 0.0]\nclass = E", fillcolor="#e58139"] ;
703 -> 704 ;
705 [label="CreditScore <= 717.5\ngini = 0.17\nsamples = 0.2%\nvalue = [0.91, 0.09]\nclass = E", fillcolor="#e88e4d"] ;
703 -> 705 ;
706 [label="gini = 0.0\nsamples = 0.1%\nvalue = [1.0, 0.0]\nclass = E", fillcolor="#e58139"] ;
705 -> 706 ;
707 [label="Spain <= 0.5\ngini = 0.5\nsamples = 0.0%\nvalue = [0.5, 0.5]\nclass = E", fillcolor="#ffffff"] ;
705 -> 707 ;
708 [label="gini = 0.0\nsamples = 0.0%\nvalue = [1.0, 0.0]\nclass = E", fillcolor="#e58139"] ;
707 -> 708 ;
709 [label="gini = 0.0\nsamples = 0.0%\nvalue = [0.0, 1.0]\nclass = x", fillcolor="#399de5"] ;
707 -> 709 ;
710 [label="CreditScore <= 645.5\ngini = 0.08\nsamples = 0.7%\nvalue = [0.96, 0.04]\nclass = E", fillcolor="#e68642"] ;
690 -> 710 ;
711 [label="Balance <= 156958.57\ngini = 0.23\nsamples = 0.2%\nvalue = [0.87, 0.13]\nclass = E", fillcolor="#e99457"] ;
710 -> 711 ;
712 [label="CreditScore <= 603.0\ngini = 0.44\nsamples = 0.1%\nvalue = [0.33, 0.67]\nclass = x", fillcolor="#9ccef2"] ;
711 -> 712 ;
713 [label="gini = 0.0\nsamples = 0.0%\nvalue = [1.0, 0.0]\nclass = E", fillcolor="#e58139"] ;
712 -> 713 ;
714 [label="gini = 0.0\nsamples = 0.0%\nvalue = [0.0, 1.0]\nclass = x", fillcolor="#399de5"] ;
712 -> 714 ;
715 [label="gini = 0.0\nsamples = 0.2%\nvalue = [1.0, 0.0]\nclass = E", fillcolor="#e58139"] ;
711 -> 715 ;
716 [label="gini = 0.0\nsamples = 0.4%\nvalue = [1.0, 0.0]\nclass = E", fillcolor="#e58139"] ;
710 -> 716 ;
717 [label="Male <= 0.5\ngini = 0.48\nsamples = 0.1%\nvalue = [0.6, 0.4]\nclass = E", fillcolor="#f6d5bd"] ;
689 -> 717 ;
718 [label="gini = 0.0\nsamples = 0.0%\nvalue = [1.0, 0.0]\nclass = E", fillcolor="#e58139"] ;
717 -> 718 ;
719 [label="gini = 0.0\nsamples = 0.0%\nvalue = [0.0, 1.0]\nclass = x", fillcolor="#399de5"] ;
717 -> 719 ;
720 [label="EstimatedSalary <= 68768.7\ngini = 0.44\nsamples = 0.1%\nvalue = [0.33, 0.67]\nclass = x", fillcolor="#9ccef2"] ;
592 -> 720 ;
721 [label="gini = 0.0\nsamples = 0.0%\nvalue = [1.0, 0.0]\nclass = E", fillcolor="#e58139"] ;
720 -> 721 ;
722 [label="gini = 0.0\nsamples = 0.0%\nvalue = [0.0, 1.0]\nclass = x", fillcolor="#399de5"] ;
720 -> 722 ;
723 [label="CreditScore <= 628.5\ngini = 0.36\nsamples = 0.8%\nvalue = [0.76, 0.24]\nclass = E", fillcolor="#eda978"] ;
351 -> 723 ;
724 [label="EstimatedSalary <= 65363.24\ngini = 0.17\nsamples = 0.4%\nvalue = [0.91, 0.09]\nclass = E", fillcolor="#e88e4d"] ;
723 -> 724 ;
725 [label="Balance <= 76805.3\ngini = 0.44\nsamples = 0.1%\nvalue = [0.67, 0.33]\nclass = E", fillcolor="#f2c09c"] ;
724 -> 725 ;
726 [label="gini = 0.0\nsamples = 0.0%\nvalue = [1.0, 0.0]\nclass = E", fillcolor="#e58139"] ;
725 -> 726 ;
727 [label="Age <= 37.5\ngini = 0.5\nsamples = 0.0%\nvalue = [0.5, 0.5]\nclass = E", fillcolor="#ffffff"] ;
725 -> 727 ;
728 [label="gini = 0.0\nsamples = 0.0%\nvalue = [0.0, 1.0]\nclass = x", fillcolor="#399de5"] ;
727 -> 728 ;
729 [label="gini = 0.0\nsamples = 0.0%\nvalue = [1.0, 0.0]\nclass = E", fillcolor="#e58139"] ;
727 -> 729 ;
730 [label="CreditScore <= 408.0\ngini = 0.1\nsamples = 0.3%\nvalue = [0.95, 0.05]\nclass = E", fillcolor="#e68844"] ;
724 -> 730 ;
731 [label="gini = 0.0\nsamples = 0.0%\nvalue = [0.0, 1.0]\nclass = x", fillcolor="#399de5"] ;
730 -> 731 ;
732 [label="gini = 0.0\nsamples = 0.3%\nvalue = [1.0, 0.0]\nclass = E", fillcolor="#e58139"] ;
730 -> 732 ;
733 [label="Balance <= 130032.17\ngini = 0.46\nsamples = 0.4%\nvalue = [0.64, 0.36]\nclass = E", fillcolor="#f3c7a7"] ;
723 -> 733 ;
734 [label="Balance <= 38159.82\ngini = 0.49\nsamples = 0.3%\nvalue = [0.58, 0.42]\nclass = E", fillcolor="#f8dbc6"] ;
733 -> 734 ;
735 [label="CreditScore <= 725.5\ngini = 0.39\nsamples = 0.2%\nvalue = [0.74, 0.26]\nclass = E", fillcolor="#eeae80"] ;
734 -> 735 ;
736 [label="Male <= 0.5\ngini = 0.47\nsamples = 0.2%\nvalue = [0.62, 0.38]\nclass = E", fillcolor="#f5d0b5"] ;
735 -> 736 ;
737 [label="CreditScore <= 689.0\ngini = 0.32\nsamples = 0.1%\nvalue = [0.2, 0.8]\nclass = x", fillcolor="#6ab6ec"] ;
736 -> 737 ;
738 [label="EstimatedSalary <= 40292.92\ngini = 0.5\nsamples = 0.0%\nvalue = [0.5, 0.5]\nclass = E", fillcolor="#ffffff"] ;
737 -> 738 ;
739 [label="gini = 0.0\nsamples = 0.0%\nvalue = [1.0, 0.0]\nclass = E", fillcolor="#e58139"] ;
738 -> 739 ;
740 [label="gini = 0.0\nsamples = 0.0%\nvalue = [0.0, 1.0]\nclass = x", fillcolor="#399de5"] ;
738 -> 740 ;
741 [label="gini = 0.0\nsamples = 0.0%\nvalue = [0.0, 1.0]\nclass = x", fillcolor="#399de5"] ;
737 -> 741 ;
742 [label="EstimatedSalary <= 132098.4\ngini = 0.22\nsamples = 0.1%\nvalue = [0.88, 0.12]\nclass = E", fillcolor="#e99355"] ;
736 -> 742 ;
743 [label="gini = 0.0\nsamples = 0.0%\nvalue = [0.0, 1.0]\nclass = x", fillcolor="#399de5"] ;
742 -> 743 ;
744 [label="gini = 0.0\nsamples = 0.1%\nvalue = [1.0, 0.0]\nclass = E", fillcolor="#e58139"] ;
742 -> 744 ;
745 [label="gini = 0.0\nsamples = 0.1%\nvalue = [1.0, 0.0]\nclass = E", fillcolor="#e58139"] ;
735 -> 745 ;
746 [label="gini = 0.0\nsamples = 0.1%\nvalue = [0.0, 1.0]\nclass = x", fillcolor="#399de5"] ;
734 -> 746 ;
747 [label="gini = 0.0\nsamples = 0.1%\nvalue = [1.0, 0.0]\nclass = E", fillcolor="#e58139"] ;
733 -> 747 ;
748 [label="CreditScore <= 668.5\ngini = 0.5\nsamples = 0.2%\nvalue = [0.54, 0.46]\nclass = E", fillcolor="#fbede3"] ;
350 -> 748 ;
749 [label="CreditScore <= 493.5\ngini = 0.44\nsamples = 0.1%\nvalue = [0.33, 0.67]\nclass = x", fillcolor="#9ccef2"] ;
748 -> 749 ;
750 [label="gini = 0.0\nsamples = 0.0%\nvalue = [0.0, 1.0]\nclass = x", fillcolor="#399de5"] ;
749 -> 750 ;
751 [label="Balance <= 111076.46\ngini = 0.5\nsamples = 0.1%\nvalue = [0.5, 0.5]\nclass = E", fillcolor="#ffffff"] ;
749 -> 751 ;
752 [label="gini = 0.0\nsamples = 0.0%\nvalue = [0.0, 1.0]\nclass = x", fillcolor="#399de5"] ;
751 -> 752 ;
753 [label="gini = 0.0\nsamples = 0.0%\nvalue = [1.0, 0.0]\nclass = E", fillcolor="#e58139"] ;
751 -> 753 ;
754 [label="gini = 0.0\nsamples = 0.1%\nvalue = [1.0, 0.0]\nclass = E", fillcolor="#e58139"] ;
748 -> 754 ;
755 [label="IsActiveMember <= 0.5\ngini = 0.44\nsamples = 23.3%\nvalue = [0.67, 0.33]\nclass = E", fillcolor="#f2be99"] ;
1 -> 755 ;
756 [label="CreditScore <= 438.5\ngini = 0.5\nsamples = 9.9%\nvalue = [0.51, 0.49]\nclass = E", fillcolor="#fefaf8"] ;
755 -> 756 ;
757 [label="gini = 0.0\nsamples = 0.2%\nvalue = [0.0, 1.0]\nclass = x", fillcolor="#399de5"] ;
756 -> 757 ;
758 [label="CreditScore <= 629.0\ngini = 0.5\nsamples = 9.7%\nvalue = [0.52, 0.48]\nclass = E", fillcolor="#fdf5f0"] ;
756 -> 758 ;
759 [label="NumOfProducts <= 2.5\ngini = 0.5\nsamples = 3.9%\nvalue = [0.46, 0.54]\nclass = x", fillcolor="#e1f0fb"] ;
758 -> 759 ;
760 [label="Balance <= 143121.49\ngini = 0.5\nsamples = 3.7%\nvalue = [0.49, 0.51]\nclass = x", fillcolor="#f4f9fe"] ;
759 -> 760 ;
761 [label="EstimatedSalary <= 114956.29\ngini = 0.5\nsamples = 3.0%\nvalue = [0.54, 0.46]\nclass = E", fillcolor="#fbede3"] ;
760 -> 761 ;
762 [label="CreditScore <= 593.5\ngini = 0.48\nsamples = 1.8%\nvalue = [0.6, 0.4]\nclass = E", fillcolor="#f6d4bc"] ;
761 -> 762 ;
763 [label="Age <= 55.5\ngini = 0.44\nsamples = 1.4%\nvalue = [0.67, 0.33]\nclass = E", fillcolor="#f2be99"] ;
762 -> 763 ;
764 [label="CreditScore <= 482.0\ngini = 0.34\nsamples = 1.2%\nvalue = [0.78, 0.22]\nclass = E", fillcolor="#eca571"] ;
763 -> 764 ;
765 [label="Tenure <= 3.5\ngini = 0.44\nsamples = 0.1%\nvalue = [0.33, 0.67]\nclass = x", fillcolor="#9ccef2"] ;
764 -> 765 ;
766 [label="gini = 0.0\nsamples = 0.0%\nvalue = [0.0, 1.0]\nclass = x", fillcolor="#399de5"] ;
765 -> 766 ;
767 [label="Balance <= 37704.16\ngini = 0.44\nsamples = 0.1%\nvalue = [0.67, 0.33]\nclass = E", fillcolor="#f2c09c"] ;
765 -> 767 ;
768 [label="gini = 0.0\nsamples = 0.0%\nvalue = [1.0, 0.0]\nclass = E", fillcolor="#e58139"] ;
767 -> 768 ;
769 [label="Tenure <= 6.0\ngini = 0.5\nsamples = 0.0%\nvalue = [0.5, 0.5]\nclass = E", fillcolor="#ffffff"] ;
767 -> 769 ;
770 [label="gini = 0.0\nsamples = 0.0%\nvalue = [1.0, 0.0]\nclass = E", fillcolor="#e58139"] ;
769 -> 770 ;
771 [label="gini = 0.0\nsamples = 0.0%\nvalue = [0.0, 1.0]\nclass = x", fillcolor="#399de5"] ;
769 -> 771 ;
772 [label="Tenure <= 1.5\ngini = 0.3\nsamples = 1.1%\nvalue = [0.82, 0.18]\nclass = E", fillcolor="#eb9d65"] ;
764 -> 772 ;
773 [label="EstimatedSalary <= 77953.9\ngini = 0.5\nsamples = 0.1%\nvalue = [0.5, 0.5]\nclass = E", fillcolor="#ffffff"] ;
772 -> 773 ;
774 [label="CreditScore <= 522.5\ngini = 0.38\nsamples = 0.0%\nvalue = [0.25, 0.75]\nclass = x", fillcolor="#7bbeee"] ;
773 -> 774 ;
775 [label="gini = 0.0\nsamples = 0.0%\nvalue = [0.0, 1.0]\nclass = x", fillcolor="#399de5"] ;
774 -> 775 ;
776 [label="gini = 0.0\nsamples = 0.0%\nvalue = [1.0, 0.0]\nclass = E", fillcolor="#e58139"] ;
774 -> 776 ;
777 [label="gini = 0.0\nsamples = 0.0%\nvalue = [1.0, 0.0]\nclass = E", fillcolor="#e58139"] ;
773 -> 777 ;
778 [label="Balance <= 33781.66\ngini = 0.26\nsamples = 1.0%\nvalue = [0.85, 0.15]\nclass = E", fillcolor="#ea985d"] ;
772 -> 778 ;
779 [label="Age <= 48.5\ngini = 0.05\nsamples = 0.6%\nvalue = [0.98, 0.02]\nclass = E", fillcolor="#e6843e"] ;
778 -> 779 ;
780 [label="gini = 0.0\nsamples = 0.5%\nvalue = [1.0, 0.0]\nclass = E", fillcolor="#e58139"] ;
779 -> 780 ;
781 [label="CreditScore <= 553.5\ngini = 0.24\nsamples = 0.1%\nvalue = [0.86, 0.14]\nclass = E", fillcolor="#e9965a"] ;
779 -> 781 ;
782 [label="EstimatedSalary <= 38741.86\ngini = 0.5\nsamples = 0.0%\nvalue = [0.5, 0.5]\nclass = E", fillcolor="#ffffff"] ;
781 -> 782 ;
783 [label="gini = 0.0\nsamples = 0.0%\nvalue = [1.0, 0.0]\nclass = E", fillcolor="#e58139"] ;
782 -> 783 ;
784 [label="gini = 0.0\nsamples = 0.0%\nvalue = [0.0, 1.0]\nclass = x", fillcolor="#399de5"] ;
782 -> 784 ;
785 [label="gini = 0.0\nsamples = 0.0%\nvalue = [1.0, 0.0]\nclass = E", fillcolor="#e58139"] ;
781 -> 785 ;
786 [label="NumOfProducts <= 1.5\ngini = 0.48\nsamples = 0.4%\nvalue = [0.61, 0.39]\nclass = E", fillcolor="#f6d2b8"] ;
778 -> 786 ;
787 [label="HasCrCard <= 0.5\ngini = 0.49\nsamples = 0.2%\nvalue = [0.56, 0.44]\nclass = E", fillcolor="#f9e3d3"] ;
786 -> 787 ;
788 [label="Age <= 42.5\ngini = 0.5\nsamples = 0.0%\nvalue = [0.5, 0.5]\nclass = E", fillcolor="#ffffff"] ;
787 -> 788 ;
789 [label="gini = 0.0\nsamples = 0.0%\nvalue = [1.0, 0.0]\nclass = E", fillcolor="#e58139"] ;
788 -> 789 ;
790 [label="gini = 0.0\nsamples = 0.0%\nvalue = [0.0, 1.0]\nclass = x", fillcolor="#399de5"] ;
788 -> 790 ;
791 [label="Balance <= 99134.78\ngini = 0.49\nsamples = 0.2%\nvalue = [0.57, 0.43]\nclass = E", fillcolor="#f8e0ce"] ;
787 -> 791 ;
792 [label="gini = 0.0\nsamples = 0.0%\nvalue = [0.0, 1.0]\nclass = x", fillcolor="#399de5"] ;
791 -> 792 ;
793 [label="EstimatedSalary <= 64634.82\ngini = 0.32\nsamples = 0.2%\nvalue = [0.8, 0.2]\nclass = E", fillcolor="#eca06a"] ;
791 -> 793 ;
794 [label="gini = 0.0\nsamples = 0.1%\nvalue = [1.0, 0.0]\nclass = E", fillcolor="#e58139"] ;
793 -> 794 ;
795 [label="Age <= 45.0\ngini = 0.5\nsamples = 0.1%\nvalue = [0.5, 0.5]\nclass = E", fillcolor="#ffffff"] ;
793 -> 795 ;
796 [label="gini = 0.0\nsamples = 0.0%\nvalue = [0.0, 1.0]\nclass = x", fillcolor="#399de5"] ;
795 -> 796 ;
797 [label="Male <= 0.5\ngini = 0.44\nsamples = 0.1%\nvalue = [0.67, 0.33]\nclass = E", fillcolor="#f2c09c"] ;
795 -> 797 ;
798 [label="gini = 0.0\nsamples = 0.0%\nvalue = [1.0, 0.0]\nclass = E", fillcolor="#e58139"] ;
797 -> 798 ;
799 [label="CreditScore <= 507.5\ngini = 0.5\nsamples = 0.0%\nvalue = [0.5, 0.5]\nclass = E", fillcolor="#ffffff"] ;
797 -> 799 ;
800 [label="gini = 0.0\nsamples = 0.0%\nvalue = [1.0, 0.0]\nclass = E", fillcolor="#e58139"] ;
799 -> 800 ;
801 [label="gini = 0.0\nsamples = 0.0%\nvalue = [0.0, 1.0]\nclass = x", fillcolor="#399de5"] ;
799 -> 801 ;
802 [label="Age <= 42.5\ngini = 0.41\nsamples = 0.1%\nvalue = [0.71, 0.29]\nclass = E", fillcolor="#efb388"] ;
786 -> 802 ;
803 [label="gini = 0.0\nsamples = 0.0%\nvalue = [0.0, 1.0]\nclass = x", fillcolor="#399de5"] ;
802 -> 803 ;
804 [label="gini = 0.0\nsamples = 0.1%\nvalue = [1.0, 0.0]\nclass = E", fillcolor="#e58139"] ;
802 -> 804 ;
805 [label="EstimatedSalary <= 91422.96\ngini = 0.41\nsamples = 0.2%\nvalue = [0.29, 0.71]\nclass = x", fillcolor="#88c4ef"] ;
763 -> 805 ;
806 [label="Balance <= 27664.2\ngini = 0.22\nsamples = 0.2%\nvalue = [0.12, 0.88]\nclass = x", fillcolor="#55abe9"] ;
805 -> 806 ;
807 [label="Tenure <= 7.0\ngini = 0.38\nsamples = 0.1%\nvalue = [0.25, 0.75]\nclass = x", fillcolor="#7bbeee"] ;
806 -> 807 ;
808 [label="gini = 0.0\nsamples = 0.1%\nvalue = [0.0, 1.0]\nclass = x", fillcolor="#399de5"] ;
807 -> 808 ;
809 [label="gini = 0.0\nsamples = 0.0%\nvalue = [1.0, 0.0]\nclass = E", fillcolor="#e58139"] ;
807 -> 809 ;
810 [label="gini = 0.0\nsamples = 0.1%\nvalue = [0.0, 1.0]\nclass = x", fillcolor="#399de5"] ;
806 -> 810 ;
811 [label="Balance <= 65684.15\ngini = 0.32\nsamples = 0.1%\nvalue = [0.8, 0.2]\nclass = E", fillcolor="#eca06a"] ;
805 -> 811 ;
812 [label="gini = 0.0\nsamples = 0.0%\nvalue = [1.0, 0.0]\nclass = E", fillcolor="#e58139"] ;
811 -> 812 ;
813 [label="gini = 0.0\nsamples = 0.0%\nvalue = [0.0, 1.0]\nclass = x", fillcolor="#399de5"] ;
811 -> 813 ;
814 [label="Age <= 47.5\ngini = 0.44\nsamples = 0.4%\nvalue = [0.32, 0.68]\nclass = x", fillcolor="#96cbf1"] ;
762 -> 814 ;
815 [label="Balance <= 45948.9\ngini = 0.5\nsamples = 0.2%\nvalue = [0.53, 0.47]\nclass = E", fillcolor="#fcefe6"] ;
814 -> 815 ;
816 [label="Spain <= 0.5\ngini = 0.5\nsamples = 0.1%\nvalue = [0.45, 0.55]\nclass = x", fillcolor="#deeffb"] ;
815 -> 816 ;
817 [label="gini = 0.0\nsamples = 0.1%\nvalue = [0.0, 1.0]\nclass = x", fillcolor="#399de5"] ;
816 -> 817 ;
818 [label="gini = 0.0\nsamples = 0.0%\nvalue = [1.0, 0.0]\nclass = E", fillcolor="#e58139"] ;
816 -> 818 ;
819 [label="EstimatedSalary <= 29734.73\ngini = 0.38\nsamples = 0.1%\nvalue = [0.75, 0.25]\nclass = E", fillcolor="#eeab7b"] ;
815 -> 819 ;
820 [label="gini = 0.0\nsamples = 0.0%\nvalue = [0.0, 1.0]\nclass = x", fillcolor="#399de5"] ;
819 -> 820 ;
821 [label="gini = 0.0\nsamples = 0.0%\nvalue = [1.0, 0.0]\nclass = E", fillcolor="#e58139"] ;
819 -> 821 ;
822 [label="gini = 0.0\nsamples = 0.2%\nvalue = [0.0, 1.0]\nclass = x", fillcolor="#399de5"] ;
814 -> 822 ;
823 [label="HasCrCard <= 0.5\ngini = 0.5\nsamples = 1.2%\nvalue = [0.46, 0.54]\nclass = x", fillcolor="#e1f0fb"] ;
761 -> 823 ;
824 [label="NumOfProducts <= 1.5\ngini = 0.49\nsamples = 0.5%\nvalue = [0.57, 0.43]\nclass = E", fillcolor="#f8decc"] ;
823 -> 824 ;
825 [label="CreditScore <= 600.0\ngini = 0.47\nsamples = 0.2%\nvalue = [0.37, 0.63]\nclass = x", fillcolor="#acd6f4"] ;
824 -> 825 ;
826 [label="Age <= 43.5\ngini = 0.14\nsamples = 0.2%\nvalue = [0.08, 0.92]\nclass = x", fillcolor="#49a5e7"] ;
825 -> 826 ;
827 [label="gini = 0.0\nsamples = 0.0%\nvalue = [1.0, 0.0]\nclass = E", fillcolor="#e58139"] ;
826 -> 827 ;
828 [label="gini = 0.0\nsamples = 0.1%\nvalue = [0.0, 1.0]\nclass = x", fillcolor="#399de5"] ;
826 -> 828 ;
829 [label="gini = 0.0\nsamples = 0.1%\nvalue = [1.0, 0.0]\nclass = E", fillcolor="#e58139"] ;
825 -> 829 ;
830 [label="Age <= 45.5\ngini = 0.41\nsamples = 0.3%\nvalue = [0.71, 0.29]\nclass = E", fillcolor="#efb388"] ;
824 -> 830 ;
831 [label="EstimatedSalary <= 190128.8\ngini = 0.26\nsamples = 0.2%\nvalue = [0.85, 0.15]\nclass = E", fillcolor="#ea975c"] ;
830 -> 831 ;
832 [label="gini = 0.0\nsamples = 0.2%\nvalue = [1.0, 0.0]\nclass = E", fillcolor="#e58139"] ;
831 -> 832 ;
833 [label="Tenure <= 6.5\ngini = 0.5\nsamples = 0.0%\nvalue = [0.5, 0.5]\nclass = E", fillcolor="#ffffff"] ;
831 -> 833 ;
834 [label="gini = 0.0\nsamples = 0.0%\nvalue = [1.0, 0.0]\nclass = E", fillcolor="#e58139"] ;
833 -> 834 ;
835 [label="gini = 0.0\nsamples = 0.0%\nvalue = [0.0, 1.0]\nclass = x", fillcolor="#399de5"] ;
833 -> 835 ;
836 [label="Male <= 0.5\ngini = 0.47\nsamples = 0.1%\nvalue = [0.38, 0.62]\nclass = x", fillcolor="#b0d8f5"] ;
830 -> 836 ;
837 [label="gini = 0.0\nsamples = 0.0%\nvalue = [0.0, 1.0]\nclass = x", fillcolor="#399de5"] ;
836 -> 837 ;
838 [label="gini = 0.0\nsamples = 0.0%\nvalue = [1.0, 0.0]\nclass = E", fillcolor="#e58139"] ;
836 -> 838 ;
